Layer,dense_11
Weights
0.018528044,0.06257682,0.035727747,-0.07793869,-0.020003475,0.05152402,-0.027038068,-0.025813125,-0.009603955,-0.07604189,-0.0072624534,-0.07332834,0.00031026453,-0.032289993,-0.07766182,-0.058295444,0.00804878,0.008040644,-0.076953344,0.0778719,-0.081417195,-0.060782112,-0.073189706,-0.07081624,0.03449259,-0.015305661,-0.036775164,-0.0075975507,0.078984864,-0.052016173,-0.039140623,0.0005661249,-0.0013591722,-0.0077155754,0.08029442,-0.004676692,0.027137078,0.0018112436,0.025023423,0.002926372,0.012209289,0.062492542,0.074094035,0.029447854,0.07561753,-0.030711703,0.07813557,0.06963024,-0.032746963,0.04984694,0.07928418,-0.046543382,-0.037834056,0.046555273,-0.023099933,0.06498537,0.0039581284,-0.0012474284,-0.07775704,-0.08251983,0.00660035,-0.029270325,0.035470143,-0.0692188
0.08029393,-0.027690109,0.06681513,-0.023704987,-0.03814027,-0.037087217,0.015950367,0.04910218,0.0046196356,0.07700982,-0.036765337,0.060803674,-0.006225787,-0.043454528,-0.043196842,-0.051764805,0.02523771,-0.078417465,0.040472463,-0.021083929,-0.052152425,0.021092452,-0.026786603,-0.011994898,-0.020333335,0.002050899,-0.0003351122,-0.011629507,-0.061573096,0.046978198,-0.0024648905,-0.056710817,0.04298117,0.025621176,0.01832176,-0.06734626,0.013769366,-0.0021836013,0.025161527,0.00084224343,0.0060837567,0.07756428,0.06245362,0.017501883,-0.020816699,0.020466082,0.043285064,-0.0715763,0.0064022467,0.01605834,-0.02754758,0.025687397,0.07678021,-0.032660104,0.010083102,-0.06750874,-0.070438005,-0.0663349,0.024178177,0.024882339,0.061521716,-0.0013323799,-0.0037691146,0.028659478
0.021750167,-0.051699646,0.018195279,0.017072529,0.022640198,-0.06212749,0.07534047,-0.051205035,0.0690243,0.04820069,0.018454306,0.01313325,-0.03259697,0.05335585,-0.06438656,0.04023347,-0.026931576,0.032985978,0.011950463,-0.00938271,0.030489452,0.03577991,-0.005350597,0.065965645,-0.05168555,0.077983774,0.030494131,0.017050073,0.08214917,0.01493489,0.016034976,0.06925251,-0.029556446,-0.0043605864,0.049714528,-0.04047545,0.07190811,0.047690995,0.012029499,-0.073656455,0.017682336,0.030890912,-0.03929944,-0.07455578,-0.08323038,-0.0047846884,-0.0111144185,-0.08393541,-0.07313417,0.019996159,-0.03334576,-0.07553846,-0.022185314,0.0439289,0.06868451,0.06533786,-0.07703001,0.058082677,0.024581157,-0.027447749,-0.067018464,-0.034599062,0.0014827326,0.04811833
-0.040985044,-0.013107203,0.06547577,0.024833992,0.070698954,0.028311767,-0.062085956,-0.0059151724,-0.008160666,-0.038638514,0.007965058,0.08016502,0.066446625,0.022885852,-0.027061373,-0.042399805,0.029233344,0.07600371,-0.0016669706,-0.046353605,0.0064889044,0.064442165,-0.01654172,0.01579354,0.05213476,-0.045914326,0.04697288,0.068547525,0.04576052,0.01539591,0.028180808,-0.05427047,-0.059971116,-0.083734326,-0.061130445,0.03781613,-0.073449254,-0.07374091,0.07138995,-0.034011457,0.030117959,-0.020498708,0.0036371723,-0.08084186,-0.018716864,0.0037346184,-0.068316795,0.021103323,-0.058340408,-0.03187159,0.002421774,-0.064183824,0.07744422,-0.029640518,-0.057123642,0.041053526,-0.04302826,0.032210395,0.065927945,-0.044676706,-0.03377425,-0.013331234,0.07488225,-0.040575203
-0.080102466,0.06075657,-0.0071222335,-0.022404533,-0.007889107,-0.08186048,-0.029593028,-0.049377665,-0.0034697205,-0.075160645,0.03307111,-0.0592171,-0.042051475,-0.041827284,0.03884528,0.0045054033,-0.007286884,0.060742714,0.054568447,0.05652166,0.044888698,-0.05969944,-0.056619182,0.02749189,-0.063125774,-0.02828405,0.035716616,0.044532932,0.020202301,-0.07941417,0.051253103,0.042460628,0.06467944,0.047524698,0.06823864,-0.016750008,-0.07526832,0.029527187,-0.08332178,-0.017714344,-0.00390777,0.0024473816,-0.026625905,0.053792097,0.00570558,-0.00035641342,-0.08272416,-0.040589884,0.009538509,-0.04956919,-0.08372993,0.07582962,-0.023935895,-0.025422234,0.0409785,0.04477165,0.000120446086,-0.07909136,-0.04215919,0.011505261,-0.03147936,-0.06770093,-0.06250061,-0.022841427
-0.037957713,-0.007198304,-0.0023880005,0.02704607,-0.019726679,0.043481924,-0.013975531,-0.054189328,-0.074673355,0.053871594,-0.06687412,-0.07036214,-0.045514956,0.08402077,-0.014936313,-0.07421372,-0.025861416,0.034179732,-0.08035892,0.003345415,0.00097420067,0.02169969,-0.074086495,0.042138018,-0.07584405,-0.05875159,-0.06068164,-0.044113528,0.07204079,0.0049131215,0.041013606,-0.07144004,-0.07168572,-0.029082835,0.0029654205,-0.026589703,0.019679673,-0.048867874,-0.04941154,-0.02855032,-0.014789157,0.058002166,-0.052646894,-0.020816334,0.0706205,0.057341434,0.07323178,-0.026121747,0.019187003,0.05238592,0.052312575,-0.08407325,-0.00622458,-0.04708388,0.060373016,-0.010830924,0.04008352,0.052196287,-0.01888249,-0.030072797,-0.049341407,-0.061987408,0.050424077,0.04261052
-0.057423383,-0.06475809,0.017967254,-0.021723595,0.051448666,0.015034527,-0.047000512,-0.06861974,0.011014126,-0.038888738,-0.033795986,-0.053598315,0.009202637,-0.03973962,0.018781416,-0.008855283,-0.05115829,-0.07126103,0.0031223297,0.043969788,0.07314307,-0.019211352,0.05515904,0.016359866,-0.03552559,-0.0464098,-0.047315992,0.025128089,0.07252406,-0.003582321,-0.059149332,-0.017263994,-0.04135499,-0.06514932,0.06432683,0.023732841,-0.03771395,-0.0046590418,0.030589849,0.05985751,0.03181225,-0.07311955,0.040417008,-0.019891351,-0.044755783,-0.0441987,-0.030922517,-0.037082184,0.025427192,-0.027007025,-0.042072013,0.08135312,-0.00076881796,-0.025065843,0.02911067,0.050498493,-0.074688576,-0.08351372,0.07627735,-0.019922256,-0.066958204,-0.04399045,-0.007388644,-0.00042712688
-0.033391844,-0.00030982494,-0.0345108,0.025675267,-0.055056557,0.060666554,0.06536529,-0.06205806,-0.029086623,-0.045248307,0.038080446,0.057449676,0.021146178,-0.00468383,0.012775332,-0.04602569,0.072723515,0.019059815,-0.04322161,-0.07451781,0.06533492,0.059371702,-0.046510976,0.051423274,0.081125595,-0.0064139217,-0.04337116,0.013524577,-0.025446784,-0.021373697,-0.06394347,0.08105909,-0.07128875,0.02732902,0.05877564,0.07085585,-0.009172253,-0.048997786,0.0032820255,0.056293838,-0.08357659,0.019571915,0.00043904036,-0.044478744,-0.035665873,-0.050882597,0.019943535,0.07911553,-0.059010755,-0.081860706,-0.008449718,0.00061345845,0.010517485,-0.04900645,-0.027008407,0.051803418,-0.025510736,-0.027048316,-0.078459114,-0.06842715,-0.032213505,0.068477325,-0.046553873,-0.051929194
-0.052581538,0.06771467,0.00011725724,0.04033471,-0.07289718,-0.013372563,-0.011362255,0.041734226,-0.05953585,-0.07766687,0.07293322,0.081235774,-0.0057271644,-0.04040155,0.043150194,-0.0726461,-0.057389386,0.08100294,0.078829624,0.063228674,0.0392564,-0.08193986,0.06715416,0.03506092,-0.06704739,0.07096324,-0.04550214,0.038729444,0.052506633,0.0445588,0.048754282,-0.0649946,0.049362577,-0.009496294,0.04574939,-0.02737581,0.082721554,0.050110646,-0.06798278,0.061649166,-0.066621244,0.05031862,-0.048154283,-0.04378828,-0.03619139,-0.08166814,-0.004899621,-0.07217892,-0.029665545,0.07202434,-0.06551528,0.05301983,-0.0002738461,0.043477647,-0.06387292,-0.003878951,0.045080252,-0.04464596,-0.041292302,-0.03715179,0.06554825,0.0682546,0.0023714975,-0.028554752
-0.003377542,-0.06365855,-0.08286605,-0.053089283,0.009803414,-0.047356024,-0.047114242,-0.05740543,-0.032246474,0.033017278,0.03623499,0.076867335,0.053550757,0.017525569,-0.0019266605,0.012561709,-0.05689247,-0.066791646,-0.052618477,0.018194057,0.04568153,0.018058166,0.032044224,0.08312682,-0.0063359886,-0.069251105,-0.012524471,-0.05245435,-0.04115984,0.042537026,-0.06758951,-0.07419974,-0.04965097,-0.030855436,-0.060204577,-0.079660036,-0.02693569,-0.043304116,-0.03263215,-0.07646314,0.029932834,0.029129826,-0.023632888,0.027695462,0.012725174,-0.026620489,0.0032143965,0.06215269,-0.005997561,0.072077624,-0.026338156,0.07920768,-0.031061336,-0.026974376,0.069004185,0.07188287,-0.02036091,-0.026305567,-0.013687767,-0.07137665,0.008355223,-0.04864015,-0.00856477,-0.031374753
0.021939524,0.019761734,-0.057256445,0.077576466,-0.042688336,0.030027993,0.08223172,0.007844508,-0.0014624521,-0.05126125,-0.016868673,0.04241497,-0.06470427,0.033892892,0.06450512,-0.08344096,0.0013496429,0.06135685,-0.04829599,-0.07979178,-0.0748142,-0.0018866509,-0.002200067,-0.062300682,-0.0762122,0.07809865,0.07817265,0.05417051,-0.06599178,0.06427818,0.005554013,0.043295898,0.07815274,-0.055527143,-0.021596387,0.060255237,-0.05743094,0.05877953,0.0029569566,-0.006732449,0.033475213,-0.07032319,-0.066251956,0.059066825,0.004905276,-0.074761175,0.07163901,-0.06805003,0.07326084,0.006135419,-0.06624949,-0.08364129,-0.0043830946,-0.04688929,0.046384268,-0.012500145,0.076783754,-0.07583998,-0.0758035,-0.034921963,-0.056941964,-0.014005572,-0.04453969,-0.06499855
0.071896575,-0.008775346,-0.002959624,0.0027550831,-0.011145242,0.046518482,-0.032982826,-0.016897291,0.04607182,-0.0045030564,0.03338456,-0.08244184,-0.012093149,0.056047656,0.011081085,0.06884279,0.03249401,-0.06388014,0.01926604,-0.0327686,0.0053511336,0.011313945,-0.075643,-0.06469207,0.020196058,0.04989127,0.041703723,0.031978443,-0.0016725287,-0.06996475,0.013007827,0.006604418,0.01282417,0.045237713,0.018242389,-0.0564421,-0.046470445,-0.025749069,-0.08365222,-0.06669579,-0.037534337,-0.019223325,0.042897902,0.08063013,0.034958325,0.027512684,-0.028470341,-0.031210065,0.009956673,-0.05323901,-0.027201515,-0.012612492,0.037202053,-0.0033701211,-0.022580292,-0.020575397,0.037935995,-0.080164514,0.05359105,0.026685305,0.077394,0.022148177,-0.054745845,-0.009643361
0.06559258,-0.07178026,0.03322871,0.09953593,0.036626067,-0.0008080788,-0.06323472,-0.044864956,0.061386775,0.012390345,-0.067597106,0.01080332,-0.07182171,-0.058756854,-0.106239244,0.04307582,-0.068475164,0.0105202915,-0.06428254,-0.012225911,-0.03241305,0.029407699,0.04542825,0.01650795,0.112353556,-0.030763125,0.041047905,-0.0038708844,-0.012455295,0.011177075,-0.037078053,-0.042559363,0.044645436,0.05872105,0.098239556,0.0017028898,0.09281411,0.023085617,-0.00922015,-0.002922222,-0.051890355,0.02084591,-0.03309297,0.05524637,-0.00018338338,0.037430946,-0.0016117718,0.032941647,-0.08306888,-0.03380101,0.10298002,0.044253528,-0.09808251,-0.067572705,0.086252175,-0.06035687,0.07838166,0.08316737,0.04376956,-0.07637433,-0.076086774,0.04477899,0.035821915,0.004888192
-0.05348709,-0.042866793,-0.05614873,0.052300923,0.06813613,-0.023691494,-0.019956611,0.025025371,-0.06746949,-0.037163865,0.008769028,0.07813378,0.07374309,0.041385278,0.0050684256,-0.053918682,-0.06368522,-0.113091104,0.06517848,-0.033937592,0.03497906,-0.050274473,0.01804783,0.04038119,0.052162476,-0.017005736,0.010423745,-0.093068026,0.05480172,-0.070932336,0.08772315,-0.051442184,-0.054695427,0.05592778,-0.053599402,-0.048212163,0.11618167,0.02961713,0.014672569,-0.044984866,0.0006319288,0.03261221,0.0031915526,0.004682363,-0.030456515,0.04607416,0.07410713,0.046150632,-0.019817634,-0.046454523,0.039967407,-0.011505044,-0.008280572,-0.07879448,0.08501806,0.01579113,0.010962784,0.07347062,0.07364089,0.04514234,0.008709006,0.008864524,0.047640543,0.024754554
-0.06834218,-0.054889504,0.06906647,-0.022693895,-0.011381805,0.022163957,-0.021020254,-0.054999784,-0.07389284,-0.07541943,0.060796432,0.06814998,0.0999275,-0.023090687,-0.028087778,-0.070739165,-0.093240745,-0.03296519,0.018467015,-0.055712886,-0.025925582,0.0739728,-0.00015413715,0.06331396,0.07829536,-0.05225766,-0.08884282,0.09105101,0.06074987,-0.073946595,-0.0548741,-0.0058584586,0.07190319,0.08169263,-0.08160353,-0.057707798,0.037502896,-0.051925443,0.05296336,0.04115846,0.024192499,-0.048493534,0.058373604,0.035773568,0.046996564,0.0872455,0.0044662603,0.09706107,-0.0056704506,0.04683251,-0.061183654,0.080572866,0.085400485,0.005354285,-0.06989691,0.06491744,-0.04677195,0.0076281717,0.08375459,-0.0042314753,-0.043101683,0.03710735,-0.072514705,0.0009104088
0.021385469,0.043560065,-0.008971446,-0.0010359647,0.041387074,-0.0023827255,-0.07755985,-0.020999439,0.0030106618,-0.0039761364,-0.049172506,-0.021727407,-0.02404524,0.03614562,-0.08482561,-0.008600906,-0.052213054,-0.024194026,0.024507888,-0.083448365,-0.059516303,-0.055989824,-0.052882027,-0.062164947,-0.026038846,0.054309353,0.06982367,-0.056699168,-0.068861075,-0.032120172,0.06461118,0.05655735,0.065767564,0.012652278,0.0769139,0.047918506,-0.03977867,0.008467786,0.059750628,-0.04706272,0.07461205,0.0074666752,0.06493545,-0.0072219516,-0.05310181,0.07617978,0.011075164,0.00033738278,0.029237859,-0.016390203,-0.086579606,-0.06839449,0.074804164,-0.072558485,-0.064528465,0.013545939,-0.0024001026,0.035668377,0.0027255043,0.051370956,0.034113094,0.023075981,0.030108158,-0.053390905
0.060439505,-0.06635241,0.05460111,-0.039217737,-0.031760126,-0.041735373,0.060093887,0.018132888,-0.057985738,-0.06213238,-0.01461941,0.015492536,0.071313076,0.008983433,0.03950099,-0.0138101205,0.016645908,0.076262854,0.074715145,-0.001265116,0.03696893,0.0029796213,-0.017086968,0.052402385,-0.050976373,-0.02523376,-0.032796938,0.04856775,-0.011545815,-0.070137866,-0.031753067,0.058544897,-0.075274274,0.018601887,-0.05410225,0.06410167,-0.08272884,0.012755558,-0.0039891377,0.0043651015,-0.06855466,0.044853263,0.018124945,0.031072147,0.025654808,0.009340391,0.015041485,-0.022218525,-0.040097136,-0.048580207,0.082477175,0.042621486,-0.05122772,0.0061633363,-0.061818946,0.08239027,-0.010938473,-0.07448765,0.047433622,-0.08000021,0.0423586,0.070956,0.02150698,0.05219365
-0.07134142,-0.014390245,0.026974998,-0.043235067,0.047545113,-0.03293331,0.06931128,0.00319653,-0.019322835,0.008019261,0.005384207,-0.034396168,-0.052596036,0.06101074,-0.027691536,0.004180059,0.022486798,-0.034305017,0.0027934313,-0.040628247,-0.0031657442,-0.009998128,0.06290988,0.06286291,-0.013238877,-0.02652597,-0.07864033,-0.06670186,-0.052701645,-0.064306095,0.06625851,-0.07402013,-0.006257914,-0.018753022,0.002150774,-0.041161023,0.03124588,0.025852695,0.039805338,0.03470894,-0.019659258,0.04140278,0.049064852,-0.057325613,0.073582195,0.032413855,0.021200202,-0.078978315,0.05816775,0.012596063,-0.015817642,-0.004866816,0.079888724,-0.03822003,-0.023649372,-0.04399027,0.054464914,-0.07674798,0.074333735,-0.030314017,0.0739805,0.06142386,-0.063153975,-0.016243145
0.07993523,0.024156176,0.06782339,0.038189046,-0.017189488,0.07664422,0.03844306,-0.030467756,0.0621463,-0.009009324,0.040740356,0.06517973,-0.014152698,0.013683535,0.058214,0.05623863,-0.045345753,0.045370676,0.048338734,-0.0004799515,0.0025851205,0.041381024,-0.08336351,-0.039104547,-0.053513683,0.049186416,-0.009551525,-0.04397964,-0.044189315,-0.07008406,0.060797133,-0.06390148,0.06274507,0.01736258,-0.0027242824,0.050892137,0.032051444,0.083478324,-0.03370109,-0.07231907,-0.060896907,0.053683393,-0.013735399,-0.016185328,-0.063415825,0.08395649,-0.008124828,-0.0817271,0.07583452,-0.00888928,-0.026788387,0.03344036,-0.03024593,-0.0432535,-0.0010941699,-0.018752277,-0.0127631575,-0.055851266,-0.0019678771,0.081972145,0.004921004,0.06367905,0.0356386,-0.047341064
-0.023957577,0.007971533,-0.003274344,0.039952323,0.0054920614,0.0831176,0.06720323,0.065623336,-0.02488986,-0.0285944,0.07987458,0.074034445,0.02582319,0.037811033,0.017360277,0.023078516,0.01503244,-0.07402153,-0.03250087,-0.025904093,0.07296104,-0.049564436,0.018709078,0.06515654,0.042794906,0.004271589,-0.077266395,-0.06185364,0.007831112,-0.056492377,0.05181601,-0.034406476,0.06211724,-0.045023873,-0.04951875,-0.048813466,-0.008897223,-0.06530266,0.019065917,0.072397344,-0.020053148,-0.017521776,-0.012562253,-0.063999385,-0.03593144,0.071865834,-0.038702767,0.016583458,0.057661183,-0.06816957,-0.061038673,-0.069640145,0.033552423,-0.06387103,-0.032150812,0.019526951,0.07561832,-0.014730312,-0.0738159,0.08400444,0.048886262,-0.03452253,-0.07759816,-0.051203754
0.019932903,-0.083634354,-0.026954602,-0.061348863,0.051368676,0.04536044,0.0048301294,0.058519237,0.05497571,-0.020956397,0.061438955,-0.035116013,-0.023915783,-0.061643325,-0.03367217,-0.0530962,0.07391491,-0.071428195,0.0591807,0.061395757,-0.066022284,-0.029749013,-0.061075095,0.060808934,-0.08096941,-0.057823133,-0.043359667,0.07181639,-0.08123959,0.005120188,-0.05896166,0.07251949,0.024587855,-0.043512285,0.011496782,0.06722272,-0.0019132644,-0.033378627,-0.0757283,0.0814463,0.008030735,0.063508905,0.03599166,-0.07532796,-0.034868035,0.008575179,-0.0049489588,0.057429813,-0.016963653,0.035578355,-0.025202915,-0.043929044,0.055044197,-0.0006405711,-0.0726708,0.01642418,0.026304908,-0.06228887,-0.03392883,-0.04679888,0.025944024,-0.059595875,-0.05353165,-0.037892718
-0.024244197,-0.060705125,-0.038926862,-0.06606635,-0.024414785,0.026226431,-0.01033964,-0.051003806,0.027427249,-0.077818826,-0.07906449,-0.069303446,-0.011490621,-0.06924541,-0.08001518,0.06389376,-0.077279136,-0.017969117,-0.08303203,-0.017338678,-0.06476174,0.031236976,-0.055278264,-0.06314896,0.073283814,-0.0131518245,-0.02807422,0.042321496,-0.076665714,-0.07528312,-0.056712195,0.05311223,0.008396797,-0.069626614,-0.004417002,0.080940165,-0.03613947,0.03217362,-0.019615978,0.063207544,0.024595737,0.0057998,0.04291307,-0.0111809,0.06242334,-0.023922682,0.06768549,-0.0022720844,-0.06487513,0.006081708,-0.023470122,0.009506144,0.030077226,0.016839735,-0.027180057,0.059134714,0.06242325,-0.07407566,-0.06608011,0.06830009,-0.04222455,-0.067945704,0.022188023,0.08071677
0.0063898116,-0.07017561,0.0065616593,0.026544802,0.058355965,0.07225945,0.02804418,-0.017151043,0.0052461103,-0.022204366,0.027369738,-0.081929594,-0.001325056,-0.055443935,-0.013625093,-0.030899357,0.08362118,-0.083046384,0.0014581829,0.03649223,0.03222891,0.055479832,-0.05807133,0.047663443,0.03982375,0.05874393,-0.014342733,0.057233296,-0.017873697,-0.022485957,-0.07170134,-0.057210296,-0.04263589,-0.015082352,0.01667244,0.08147629,0.038162492,0.04782533,0.020556808,-0.072404616,0.02799701,0.070410155,-0.050554,-0.014648892,0.020801656,-0.08166642,0.030317508,-0.049047183,-0.06995364,0.016361892,-0.0801823,0.051826395,-0.008541286,0.0651244,-0.03578476,0.06745986,0.05848237,0.026680052,0.0052793995,0.043532036,0.040852964,0.05436475,-0.046724096,-0.0022295713
-0.00605233,0.051645182,0.06193053,-0.06146179,-0.018351145,-0.049621772,0.0020652413,-0.042835057,-0.01664988,0.05430948,-0.071513124,0.018986396,-0.057197005,0.026813194,0.02759581,-0.076198384,-0.060983643,0.07216487,0.017740153,-0.029061757,-0.0153436065,-0.015717149,0.010029972,-0.011035904,-0.077836074,0.014010966,-0.036437783,-0.011578865,-0.010786459,-0.009414911,0.046889715,0.015933275,-0.068499595,-0.069625184,-0.029691435,-0.013901867,-0.06693143,-0.0003068596,0.070058085,-0.00610435,0.03730098,-0.056163818,0.072859876,0.050617628,-0.0550216,-0.036951207,0.067214705,0.052031435,0.036622226,-0.057987,-0.063225105,-0.04278963,-0.0143045485,0.07239788,0.0117757395,0.06110903,0.0047492906,0.06853255,0.028399587,-0.014011532,0.05479019,-0.051259585,-0.008642785,-0.07290019
-0.014270559,-0.0067558736,0.07821681,0.017290726,0.04622627,-0.020000286,0.076718695,-0.008811988,-0.045317136,-0.062103525,-0.061754994,0.077574275,0.021429308,0.05562719,0.05290415,0.04118804,-0.07710486,-0.019797474,-0.023280166,0.017851494,-0.036590982,-0.0031391531,0.03713298,0.0151890665,0.03339138,-0.057319656,-0.027323589,0.035287157,-0.00011882186,-0.078454345,0.027363196,0.0051873103,-0.06138508,-0.03782357,0.010089435,0.065353595,-0.0012249276,0.027372018,0.058285736,0.022683054,0.07324762,-0.065460294,-0.0042964965,0.07649473,-0.0011713579,0.041724302,0.0225311,0.037601985,-0.018772274,-0.05138621,0.07209148,0.08253006,0.07984958,0.074932285,0.04281091,0.061445467,0.044716172,-0.047909215,0.013714038,0.005881928,0.07939463,0.05398754,-0.052900083,-0.05134275
0.053656258,0.010184079,-0.027711589,0.017873935,-0.040958248,-0.08042681,0.07920427,0.012144491,0.016147807,0.050281398,0.007320896,-0.042197835,-0.07873328,0.07034523,-0.04262057,-0.057714235,0.051604204,-0.060320094,0.0033505708,0.055282153,0.06603103,-0.017050631,0.047428556,0.011005357,0.020404212,-0.06529638,0.08238422,0.06914642,0.077640735,-0.047333103,0.03734889,0.019826353,-0.028765406,-0.07244469,-0.06898861,0.08058045,0.020707399,-0.0734214,0.036930867,-0.00985153,-0.002525337,0.0042081773,0.05057434,0.03515061,-0.053261355,0.03647033,-0.06417979,-0.071648814,-0.051465567,0.031183891,0.039657496,-0.07872494,-0.07086571,-0.023405548,-0.0651635,0.026239745,0.044173293,0.039301902,0.05931709,0.018708155,-0.03820942,-0.03440152,0.04308089,-0.011755928
-0.047140114,-0.026944455,0.005397886,-0.05670099,0.035152815,-0.020036489,0.044012778,0.04166641,0.053254016,-0.056704655,-0.012904145,-0.076978974,-0.08133842,-0.02319403,-0.021409392,-0.07196544,0.037931643,-0.0112698,-0.03824518,0.0033807904,-0.032020256,0.046828844,-0.012090266,0.07514005,0.0042326376,0.01505851,-0.01709459,0.07050391,-0.08070571,-0.060354248,0.03862133,-0.07313331,-0.056475952,-0.083825536,-0.04507678,-0.068838,-0.08289301,-0.074062906,-0.07116367,0.021147542,-0.03106615,-0.07806339,0.06709085,0.054088168,-0.024008896,-0.032971054,-0.073805705,0.050143935,0.07296922,0.0366218,-0.03795268,0.03284256,-0.038821474,-0.03940288,-0.025917388,0.08023792,0.07154495,0.04606364,0.006418571,-0.028760254,-0.00484702,0.024511792,-0.007162884,0.07006898
0.079646684,0.0778395,0.05260534,0.078442164,0.05045549,-0.03322286,0.054508783,-0.02208919,-0.032091793,-0.0039684772,0.011655256,0.06437721,0.027585246,0.0154659,0.05885967,0.078420065,-0.040004045,-0.022280894,0.008981109,-0.0332443,-0.06570685,-0.058912247,-0.024292491,0.045312963,-0.03358848,-0.02459678,0.051672198,0.042551644,0.050428517,-0.061305866,-0.05098257,-0.03471592,-0.055220243,-0.01775273,0.018606283,-0.060195934,0.027946748,-0.0025563017,-0.013713397,-0.07957314,-0.050573934,-0.07178294,-0.040756136,0.034399137,-0.03188543,-0.060186446,-0.0031513274,-0.020435616,-0.022062458,-0.005407065,-0.03565252,-0.011238076,-0.04055228,0.08198763,-0.028526694,-0.07122137,-0.055422876,0.0676251,0.009186976,-0.018451996,0.016389161,-0.077004164,-0.026941586,0.06330127
0.05268524,0.03615178,0.03143911,0.009828307,0.07076626,-0.033999443,0.072104625,-0.027620759,0.01074595,0.023202196,0.07862436,0.02759052,0.012985408,0.037243724,-0.007057674,0.024985544,-0.014623061,-0.009926595,-0.073495075,-0.067730874,-0.024747234,-0.042187106,0.00892289,0.01944463,0.054766305,0.028056674,0.04514175,-0.048825596,-0.044775397,0.018192507,0.0599254,0.038644932,0.067355774,-0.020635702,-0.03923725,-0.043647595,0.01832886,0.06631719,0.06955383,-0.05544632,-0.010603003,0.03667912,0.02637674,0.04768396,0.006755531,-0.019222304,0.03364431,0.05711747,-0.030521803,-0.07026989,-0.06563244,-0.008895598,-0.014229566,0.052300893,0.027176425,-0.0022248179,-0.022896878,-0.018462427,0.0083146915,0.070661016,0.056379877,-0.068184674,-0.03939165,0.0039496496
-0.0038680881,0.05283258,0.0069109127,0.011027798,-0.036247443,-0.035835236,-0.045292165,0.0011529103,0.0424119,0.0788328,0.029120795,0.05336056,-0.020377494,-0.028007258,-0.07732574,-0.059222497,-0.06917506,-0.07724682,0.05402056,-0.034500953,-0.005666718,-0.07944102,0.048594885,0.047057547,0.052166276,0.052131213,0.07363408,0.004516579,0.061144285,0.05183237,-0.016521364,0.06909966,-0.059146665,-0.05722257,-0.03706036,-0.004772797,0.010767065,-0.02030684,-0.013377219,-0.003958732,-0.044555955,-0.03253442,0.021712303,0.027050301,-0.03828613,0.030009627,-0.05183979,0.06057059,-0.08212553,-0.030074902,0.04947906,0.007866904,-0.06759825,0.08267208,0.053590693,-0.010754272,-0.011720352,-0.08370741,0.008215159,0.008458823,0.006453529,-0.0059692636,-0.050392758,-0.07871385
-0.04806474,0.054633535,0.06708767,-0.028622817,-0.03945827,-0.083357096,-0.042048708,-0.06151277,0.0028533936,-0.04387776,0.014595963,-0.020382732,-0.0035455003,0.05449944,-0.017941043,-0.021174952,0.04183065,-0.02810727,0.05698108,0.0475974,0.083613046,-0.0698866,-0.05237146,-0.055383712,-0.05488627,-0.013211347,-0.027311414,0.07208414,-0.028594539,-0.037530366,0.06851678,0.018495254,0.009614661,-0.037415974,0.009695962,0.07562975,-0.006720118,-0.06444225,-0.057751395,-0.033761874,0.021846391,-0.02800848,-0.022047918,0.003747113,0.01680217,0.07579961,-0.013828889,0.03241854,0.064767875,-0.047745127,-0.07016111,-0.04199366,0.0510462,0.017226674,0.050247587,0.04375381,-0.0237027,0.04099036,-0.06422971,0.046125688,-0.03954212,0.0020003617,-0.04843092,0.080906846
0.024126299,0.036439724,0.035077967,0.06721423,0.050123878,0.07031193,0.06183765,0.07214982,0.03251064,0.061018787,0.010894597,0.060058556,-0.047839485,0.010931961,0.0036573485,0.010922715,-0.013964839,-0.014041729,-0.013047539,-0.043716524,-0.025081206,-0.04587153,0.030263238,0.06754512,0.07842346,-0.082796805,0.026607975,-0.0029521063,0.06190624,-0.06588216,0.052557595,-0.08248391,-0.012586758,-0.050139487,-0.0011628792,0.04267133,0.0029286817,-0.006083794,0.017351791,0.08195295,-0.042183194,-0.0145089105,0.012135267,-0.030620154,0.034675352,-0.07591944,-0.013021387,0.058578603,-0.0435539,0.037565045,0.060698934,-0.032019153,-0.039858885,-0.0822113,-0.07741924,0.067137174,0.04338307,0.0838205,0.0049893484,-0.028472707,-0.040751405,-0.009874694,0.059554316,-0.021653041
0.027741767,-0.060316958,0.006628637,0.011750353,-0.060256634,-0.01912345,0.0077095167,0.034190483,-0.024258198,0.023882352,-0.049897086,0.028885119,-0.031028192,-0.025525797,0.019525148,-0.074368164,0.056057703,0.059508674,-0.0014939667,0.053722076,-0.06587562,0.052340914,-0.018278647,-0.084049806,-0.051253404,0.04044471,-0.025989702,-0.04023788,-0.03990731,-0.06853635,0.075459324,-0.04477979,0.027947754,-0.05530995,0.007411363,0.044382624,-0.018240541,0.046583287,0.012661193,-0.059054896,-0.104218245,0.0059948564,0.03826072,-0.048374046,0.052657135,-0.04567857,-0.015908495,-0.06779802,-0.079531066,-0.07642906,-0.024174577,0.028530058,-0.03884694,-0.034808807,0.07937089,0.0558045,-0.03188379,-0.006488497,0.0076579973,0.06966115,-0.06107068,-0.0683954,0.06530252,0.062353827
0.059432812,0.043527946,0.04766621,-0.030536521,0.059626076,-0.011514626,-0.102529384,0.06852389,0.032405507,0.011846118,-0.0043219477,0.043434657,-0.12633882,0.008111881,0.055951722,0.05058191,0.07863467,0.088833496,0.040217742,-0.04324391,-0.09826041,0.0834078,-0.0014301335,-0.075045,0.0043558786,-0.020804306,0.060334906,-0.052182686,0.11685499,0.018026397,0.009759806,-0.049889043,0.015492357,0.05665133,0.11142992,0.002790302,-0.079380125,0.008613162,-0.030492444,0.01022318,-0.08516912,-0.06291498,0.035114367,0.040941037,0.0003839075,-0.0023125077,-0.051533435,-0.089795485,-0.07322422,0.028430713,0.0803147,0.025429077,-0.11268795,0.06281189,0.05963332,0.019645475,0.033317383,0.0005155471,0.05503825,-0.07983512,0.06498983,0.015499579,-0.05480601,0.04351195
-0.067129694,-0.061183218,0.04114359,0.032118082,0.07612416,0.055151872,-0.01518885,0.049743682,0.051287297,-0.018949077,-0.0955371,0.03553087,-0.023846652,-0.11717502,0.04183506,-0.0111121535,0.06704817,-0.09029993,0.0453971,-0.07007097,-0.04420413,0.024539843,-0.014219924,-0.09569461,0.12934057,-0.06984261,-0.08228691,-0.09480533,0.09647211,0.114944234,-0.072988056,0.027425386,-0.084475696,0.0668553,0.024565475,0.002902941,0.007499952,-0.060074784,0.08656512,-0.026506156,0.0003832393,-0.046038765,0.03467629,-0.04202693,0.08943218,0.005046913,0.0044184253,0.06099438,-0.05698935,0.0056127277,-0.01713876,0.087882236,0.029281868,-0.07232478,0.11653583,-0.0986465,-0.02500316,0.004736629,-0.020973265,-0.045512915,0.06430293,0.030109989,-0.022236912,-0.017909613
0.027519524,-0.03835003,0.06638534,0.008924497,-0.0032339212,-0.011296343,0.0024093268,0.01924394,0.06516431,-0.02616797,-0.010859764,0.11252012,-0.030740218,-0.09115992,-0.008699261,-0.061213274,0.10938826,-0.009696744,-0.08398173,0.0014724351,-0.07811019,0.087743215,0.011299482,-0.037892736,0.025448631,-0.13211581,-0.026839562,-0.045183152,0.110257395,0.008141054,-0.034143433,-0.053524893,0.013942484,0.08242686,-0.017740298,0.055717047,0.119353704,0.014789543,0.13136889,-0.0227727,-0.12132656,0.06208483,-0.08303325,-0.014135383,-0.06476488,0.15479992,-0.022309704,0.048115756,0.041753314,0.0230254,0.04289242,0.042600434,-0.17318004,0.013791149,0.016371442,0.066532895,-0.14251445,0.075173676,0.019031089,-0.0012127926,-0.03670116,-0.0917951,0.048723742,-0.096830204
0.004348479,0.037042603,-0.010201336,0.067332976,0.05606514,-0.011028088,0.010603021,-0.02106405,0.021534987,-0.036783166,-0.03766512,-0.035008233,-0.11459519,-0.14682712,0.036284044,0.013503414,0.048641957,0.06528825,-0.039042063,0.07041811,-0.114523575,-0.068149455,0.07066422,-0.05469222,0.04702578,-0.096329495,0.041099902,-0.0627134,0.112595305,-0.0009638555,-0.043011792,0.0553584,0.032881062,0.0697971,0.019752119,0.00054810033,-0.09456889,0.0018617796,0.0853851,0.09161524,-0.037760433,0.0109028,0.064637095,-0.11331494,0.048946932,0.079523444,0.01861564,0.07759345,-0.09512583,-0.010537551,-0.0586362,0.016875166,0.015957061,-0.049007438,0.008956944,0.011033868,-0.0101762125,0.10748215,-0.03998815,-0.07052675,-0.093639076,-0.0751963,0.09288803,-0.03315178
-0.04034315,0.019952709,-0.05538825,0.09432314,0.068679474,-0.03997974,0.0058318623,-0.011864711,0.0044788667,-0.030516718,-0.00075649907,0.0064578303,-0.06385084,-0.09022288,-0.10003235,0.008171479,0.0012172697,0.011426284,-0.08195574,-0.025788322,-0.100954,0.008988636,0.11680653,-0.10319678,0.1039999,-0.04648564,-0.013825086,-0.058212362,0.017569646,0.063681066,-0.06783693,-0.0069835153,-0.061765134,0.097078316,0.1051596,0.0817502,-0.071772814,-0.046976276,0.07995074,0.10739411,0.030275714,0.09626811,-0.0050991457,0.023405675,0.004164433,0.002766171,0.03303955,0.077777706,-0.052108057,0.10855922,0.007173551,0.06430485,-0.043847635,-0.030499218,0.096963555,0.09266451,-0.10160521,-0.06579392,-0.02261296,-0.011701956,-0.013780902,-0.082353964,-0.013545451,-0.10799864
-0.06196793,-0.009428378,-0.08170096,0.061247192,-0.02484646,0.030850848,0.020518312,-0.10027564,0.023602467,-0.09006654,-0.14049268,-0.029058207,-0.05541256,0.028534163,-0.008584949,-0.04215412,-0.035395555,-0.09376713,0.045666523,0.0646326,-0.051438157,0.052159414,-0.044860374,0.031930618,0.02025412,-0.062527694,0.014907763,-0.039632324,0.026518304,0.06904187,-0.07594883,0.005496029,0.042881954,-0.028748339,0.02715914,0.020744793,0.026700305,-0.06125381,-0.0466505,-0.05562399,-0.039648812,-0.02593875,0.02557221,-0.008888578,0.059496988,0.0727262,-0.025908582,-0.028881257,-0.13271248,0.10125601,-0.023959547,-0.009686718,-0.028982764,-0.07291648,0.059986934,-0.0066700852,-0.06532553,0.09579933,0.092767365,0.022554802,0.054933887,-0.08836849,-0.018796034,-0.048892003
-0.07520611,-0.009638289,0.0035681573,0.083871275,-0.019765154,-0.016346063,-0.054704674,-0.123390146,0.099781774,0.055673048,-0.100512534,-0.02204518,0.048077755,0.029736932,-0.058578096,-0.052827075,0.06346059,-0.087609895,-0.07068485,-0.020904293,0.01433668,0.034238514,0.1072517,-0.039600164,0.053769965,-0.03724225,-0.016620297,0.044377457,0.07644624,-0.031051107,-0.056312457,-0.07863399,0.0067207357,0.13080718,0.09558276,0.057742056,0.09862927,0.08273271,0.014449439,-0.03690252,0.0046956954,-0.09565388,-0.06560003,0.007105399,0.07758815,0.07147388,0.0242416,0.07601424,-0.017937252,-0.033512767,0.068614654,0.056800086,-0.07686881,0.07328563,-0.05442085,-0.06309331,-0.13328764,0.08106354,-0.029982746,-0.088749565,0.033026006,-0.010784764,0.06981518,-0.024551949
0.07525238,-0.028902184,0.027221674,0.028988777,0.052773394,-0.023572808,-0.06365284,-0.08872487,0.035620723,-0.11626073,-0.072778665,0.08124451,-0.055227265,-0.12794836,0.027617324,-0.032908265,-0.022137238,-0.026910346,-0.07346602,0.075225264,-0.0809303,-0.006815983,0.109539054,-0.06128412,-0.030488558,0.006553009,-0.03751742,-0.0026152732,0.08555281,0.009760901,0.022513699,0.08092511,-0.0996938,0.12931864,0.068913065,-0.051283758,0.05037371,-0.07121232,-0.027204532,-0.03956756,-0.10152287,0.01389039,-0.11849435,-0.10274242,-0.031019213,0.054372016,0.055988528,0.005860178,-0.009766829,-0.049308732,0.11640935,-0.038870938,-0.019704595,0.03869037,-0.023697522,0.06743959,-0.09477908,0.015126888,0.06496632,-0.019266272,0.07360591,-0.070527,-0.05360184,0.045288295
-0.053185806,-0.056382664,-0.09567392,0.03034321,-0.036179554,-0.055500887,-0.008091237,-0.044567134,-0.029570391,-0.06888988,-0.13176666,-0.023074668,-0.09301205,0.018583437,-0.018058648,-0.07463688,0.071020946,-0.06021579,0.031550214,0.12156386,-0.028576793,0.030424565,0.009185857,-0.034795746,0.09431041,-0.10134327,-0.06116777,-0.08236251,0.10061387,-0.0034589884,0.046091866,0.07607316,0.04641483,0.18267296,0.06595662,0.02524263,-0.015349215,-0.021456745,0.10121763,0.0661583,0.036070038,-0.008247787,-0.03631131,-0.031078938,-0.050873,0.12590413,-0.08638419,-0.018423723,-0.10468593,-0.0012627065,0.028986685,-0.007543207,-0.059693832,-0.041185714,0.1184663,0.03715721,-0.09191731,-0.0067942874,0.06199662,-0.013966192,0.06277202,0.06733247,-0.051565636,-0.07905266
0.010438852,0.015503495,-0.025274722,0.07747799,0.09986973,-0.030966917,-0.0030730346,0.008301178,0.026689224,0.005495495,-0.14004149,0.012549599,0.002016984,-0.041424043,0.061572082,-0.048803747,0.081200555,0.008531493,-0.027056,0.12582256,0.0023776821,0.105217956,-0.040145144,-0.06289288,-0.055434123,-0.109059565,0.0530423,0.0092863,0.054081094,-0.020494744,0.07675767,0.0070836395,0.04006316,-0.05951513,0.14358573,-0.0068180924,0.03586499,-0.0389879,-0.02099067,0.038921487,0.04851159,-0.04100465,-0.084647104,0.028326351,-0.033228856,-0.043305565,0.0814173,-0.063574634,-0.045843225,0.012241523,-0.022055747,0.04393374,0.049921483,-0.02793699,0.022999644,0.08351157,-0.023173692,0.05787632,-0.00837572,-0.04033305,-0.0029868255,0.012216106,0.08514784,-0.0049711117
-0.037045203,-0.018980397,0.016531054,0.029940987,0.0027884068,-0.064725086,0.00951758,0.018883996,-0.016181625,0.057745222,-0.022651672,0.033523016,-0.033337373,0.01805733,-0.15866223,-0.056556493,-0.002719599,0.00987066,-0.07963094,-0.02554319,-0.02515003,-0.016932571,-0.035821483,-0.114519104,-0.008908627,-0.07896115,-0.072721034,0.009458969,-0.06359944,-0.010107662,0.035643052,0.029392911,-0.070004016,0.029164528,-0.009393005,-0.013764774,-0.04503045,0.06964975,-0.036938842,0.06873093,0.03234118,0.01622089,0.018952541,0.024798995,-0.030280447,-0.038081557,-0.050212122,0.08889333,-0.044702727,0.070118286,0.055626698,0.021766001,0.026947271,-0.06439385,-0.029787632,0.007753735,-0.070595555,-0.05668608,-0.04716837,0.021852301,-0.004732048,-0.04180033,0.06475636,-0.017543053
-0.02500977,-0.057388294,0.08850619,-0.059784487,0.02706047,-0.12069212,-0.13321503,-0.091114536,-0.0121395495,0.015410624,-0.05500321,0.10497984,0.031388618,-0.03578806,-0.0125444755,-0.006908884,0.08704776,-0.09906124,-0.0012407011,-0.07789081,-0.04341091,0.100628525,-0.015442383,-0.13271934,0.090878725,-0.1264724,-0.020123465,-0.06662549,-0.042350624,0.027883312,0.037826587,-0.07136388,-0.040814478,0.004123819,0.012502671,0.026290914,-0.0177387,-0.11681097,0.073124744,0.08199595,0.038924336,0.10590041,0.02666897,0.006275074,0.03447968,0.075639494,-0.048265174,0.019867115,-0.14626239,0.057257924,-0.016832495,-0.0061005247,-0.045420144,-0.11496846,0.055481896,0.025197523,-0.035754517,-0.010756022,0.052587938,-0.06018206,0.05549743,-0.17696929,0.11836105,-0.02654539
0.08356523,-0.053804558,-0.041296393,0.03296447,0.12558527,-0.10965657,-0.103108756,-0.123381265,0.028051265,-0.11476157,-0.10621083,-0.016202042,-0.06718605,-0.10974361,0.017977184,-0.08838701,0.064827055,0.03879442,-0.029731333,0.008910116,-0.013262629,0.09341182,0.118397295,-0.13088158,0.006887017,-0.10133658,-0.022362627,-0.06095986,0.11351917,0.09635902,0.008408419,-0.09715345,-0.08895481,0.12080166,-0.03326052,0.13883944,0.1183435,0.03133715,-0.06608721,-0.0016817257,-0.0071069845,0.1396989,-0.06048417,0.03374074,0.046293512,0.026175966,-0.09691448,0.09661648,-0.030834196,0.033284377,-0.014982628,0.11335815,-0.016210726,-0.009510341,0.031609133,-0.021872627,-0.123873346,-0.011124112,0.00054524175,0.0049669193,0.015983045,-0.06554909,0.081264645,-0.012882405
0.0038328469,0.012577647,-0.06761368,0.023088817,0.1095256,0.011197695,-0.09398752,-0.03387993,-0.035347268,0.016793536,-0.1162241,0.06707069,0.028806478,-0.075752005,0.048376765,-0.055688713,0.058032658,-0.0028703716,-0.057291538,-0.032062247,0.048137717,0.0817045,-0.048347916,-0.02303744,0.017950617,-0.07158472,-0.07212944,-0.063993014,0.057962466,0.12330587,0.051547658,-0.002874968,-0.05927244,0.16071638,0.060916472,0.111262225,0.08970494,0.06882605,-0.038182072,0.021670466,-0.106201865,0.034708835,0.011711744,-0.06727857,0.09364283,0.050251693,-0.06734412,-0.029723626,-0.09877092,-0.029196844,0.07487013,0.04092692,-0.046229772,-0.00034138432,-0.0314997,-0.0154128885,-0.10408276,0.02666588,-0.007848392,-0.12537454,-0.03415766,-0.099542685,0.01762066,0.0028470675
-0.015153691,0.046671204,0.063382655,0.029356183,0.06885493,-0.12451024,-0.029686712,0.036973055,0.018395752,0.05543079,-0.10896099,-0.007213679,-0.11102006,-0.13525808,0.071683556,-0.042408578,0.11660306,0.056996126,-0.082807936,0.032660794,-0.06907788,0.014114124,0.1290178,-0.031043576,0.062173013,-0.075995125,-0.08164982,-0.003685231,0.079302154,0.07628752,-0.08447914,0.04642971,-0.05214213,-0.021572907,0.007584189,-0.04046691,0.061378386,-0.060531214,-0.003932346,0.0999636,-0.013400606,0.0012520775,-0.07667391,-0.03240699,-0.015706185,-0.004599562,-0.021969443,0.00979896,-0.114883274,-0.06070652,0.023963396,0.012073075,-0.038060613,0.022465203,0.060497627,-0.104282804,-0.122504815,-0.019241551,-0.014240272,-0.031860586,0.0719108,-0.047003135,0.17200194,-0.042336553
0.061393417,0.048372164,-0.034507126,0.13821714,0.101624094,-0.11544919,-0.097497806,-0.04483774,0.088503726,0.021312768,-0.03488619,0.08587632,-0.030850625,-0.014982051,0.060999237,-0.011006285,0.04969985,0.034082208,-0.011189759,0.10132003,-0.097202376,0.08339291,0.08357056,-0.0144469105,-0.0056423917,-0.040444113,-0.018714111,0.026569767,0.095347464,0.112635136,-0.010812519,-0.022876188,-0.026459878,0.09227636,0.012912777,-0.018249018,0.017819524,0.13141817,-0.014501637,-0.004700826,0.020494826,0.020624757,-0.10849842,0.018752817,0.05825615,0.0142198345,-0.06149411,0.07484005,-0.048595555,-0.05502985,0.07362746,-0.032374375,-0.14352408,0.04184547,-0.011832092,-0.053535234,-0.073989674,0.01674941,0.061623193,-0.037023094,0.03523967,-0.021001257,0.15047032,0.04370133
-0.0027656928,-0.012845298,0.027398525,0.06453461,0.005349797,-0.10733138,0.015912877,-0.076117285,0.033455558,-0.04769787,0.0034866696,-0.029087124,-0.051441047,-0.040580977,0.0036817635,0.0143439695,0.14510798,-0.04550678,-0.14982077,0.032629825,-0.03955271,-0.003687196,0.034870684,0.04743684,0.13433667,0.01973108,0.031358846,0.005016959,0.039349727,0.012305701,-0.036936093,-0.02523296,-0.011673231,0.14566137,0.14233145,0.0017109758,0.11139151,0.13559577,0.03890754,-0.05333247,-0.05272986,-0.030950317,-0.07283824,0.04633633,-0.03481724,0.022087725,-0.033590876,0.050441187,0.01568953,0.010197248,0.037931237,0.11643321,-0.032241218,-0.05035478,0.075729266,0.066630796,-0.14443849,-0.0066176853,0.048364244,-0.10167881,-0.0882793,-0.09950789,-0.0071460395,0.004393056
-0.055540778,-0.049092878,-0.004712118,0.09878506,-0.03849319,-0.082701445,-0.038036235,-0.0714033,-0.020337736,0.0289402,0.029838441,0.012166485,0.0053180577,-0.09115862,-0.04537365,-0.11789935,0.07852431,-0.04122536,-0.022216782,-0.029028358,-0.017625531,0.019935096,0.08223043,-0.0036677616,0.007984541,0.028717255,-0.06041261,-0.0374813,0.01735711,0.11721349,-0.04161173,-0.080936424,0.056526072,0.10985565,0.06811614,-0.023642555,-0.022144927,0.077921644,0.045975666,-0.042728804,-0.06909483,-0.0061386456,-0.015115177,0.01243037,0.032843884,0.004129184,-0.071612954,0.015768679,-0.09404172,-0.022844534,0.015947016,0.031411745,-0.028371658,-0.08855488,-0.025323095,0.0057830736,0.039973963,0.02886134,0.0691564,-0.02535136,-0.07008938,-0.013342542,0.05964368,0.039871864
-0.018232621,0.008252275,0.025689099,0.068551354,-0.013705857,0.040088434,-0.0935049,-0.03477063,-0.03972188,-0.029040579,0.07553064,0.0092484215,-0.11183785,-0.096123725,-0.10670177,-0.021105716,0.016630676,-0.050891127,0.0490272,0.013867594,-0.0361227,0.024814902,-0.031173747,-0.08692126,0.072184555,-0.060576834,0.0024072127,-0.099489704,0.10669989,0.08167482,-0.014659768,0.071064,0.014270313,0.02195356,-0.007833849,-0.047052976,-0.022311147,0.028133875,-0.06267319,0.07983873,0.023210377,0.07380777,-0.024830101,0.003155075,0.10568821,0.04117779,0.029459767,0.05814759,-0.018870393,0.07242978,-0.04937475,0.043287378,0.008310364,0.041593656,-0.010458028,-0.08318346,-0.09166628,0.113421984,-0.030700855,0.078151695,0.066571064,-0.06598344,0.008469365,0.007988602
0.04806327,-0.0021190494,0.0145473555,-0.071521364,-0.060942132,0.06575475,-0.07614644,-0.033460893,-0.025791503,-0.012805112,-0.031257693,-0.026677243,0.039863802,-0.05569566,0.07440718,0.00034797192,-0.023572784,0.049186148,-0.056006953,0.06834339,-0.03958189,0.06250877,0.020508595,0.010456182,-0.03165157,0.068964176,0.07438662,0.024548166,0.03582202,-0.042003043,0.0748646,0.044339605,0.027165875,0.0816387,-0.045866717,0.051365413,-0.06957888,0.018304653,0.036983013,0.024948679,-0.005841017,-0.078857645,0.016253471,-0.016414315,-0.0031813905,0.01336775,-0.072579816,-0.0036127046,0.06070053,0.03654933,0.0186207,-0.04713891,0.065672524,0.0816964,0.032492727,0.0015422925,0.048598804,0.0736442,-0.054147013,0.0031168908,-0.07194484,0.019186504,-0.08203775,-0.024884328
0.07336133,0.021802045,-0.07618745,0.082514726,-0.00038760155,-0.044130493,-0.029485974,-0.060457066,0.05243898,0.06847074,0.0317953,0.05007296,0.05524365,-0.0126305,0.06626118,0.055594347,-0.036168307,-0.029235974,0.0064857975,-0.009956919,-0.08003959,0.07003098,0.034865268,0.08282863,-0.0021781698,-0.028913751,-0.049919426,0.07541133,0.03653475,-0.014438674,0.05653528,0.034065142,0.08317842,0.07512487,0.05923421,0.05730786,-0.07310332,0.07697631,0.037030518,-0.032431662,0.019260287,-0.015409507,0.07991744,-0.08185676,0.007968508,0.06354178,0.047145896,0.0709235,0.013550453,0.037061326,0.033386588,-0.0068051666,0.079951845,0.05062122,-0.049808983,-0.010513976,0.032102644,-0.06413517,-0.027894448,0.05756689,-0.0062835813,-0.0011968464,0.06139689,0.07024496
-0.044862274,0.006106898,0.06079457,0.04209467,-0.064817354,0.08293938,-0.07806155,0.04050447,-0.062564746,-0.022962458,0.022420138,-0.042187907,-0.013732709,-0.03109559,0.045183055,-0.047890384,-0.05769065,0.003931217,-0.05541355,-0.06778318,-0.061117508,0.039358236,0.050489806,0.0041293353,-0.02311024,-0.0686513,0.020239905,-0.012449361,0.08227716,-0.08373382,0.0061985105,0.08172145,-0.021018766,0.06380188,0.039734684,0.049970485,0.032971337,0.06277319,-0.028388578,-0.017710254,-0.048681524,-0.009615861,0.042855553,0.047250368,-0.031824883,-0.0031423643,0.06995504,-0.043189723,0.020732768,-0.045593087,0.078352116,-0.07322131,0.06393232,-0.0184758,0.006462753,-0.057455108,0.037245087,0.017590202,-0.042893294,0.06836163,0.071010746,-0.029796,0.082865246,0.07320175
-0.0048070103,0.051376082,-0.082231656,0.069138594,-0.033726696,0.016055532,-0.034933615,0.042585395,0.027313061,0.05589869,0.038307108,0.031668477,-0.027051825,0.0020695552,-0.02153512,0.023828901,0.046157993,-9.3758106e-05,-0.006761305,0.015360191,0.08027566,-0.025849164,0.03425853,-0.064582676,0.04223191,-0.016164891,0.0077848807,0.08027319,-0.083823025,-0.0020379052,-0.057132807,0.077005826,0.03622859,0.07696853,-0.048107877,-0.053395018,-0.03441191,-0.061298966,0.007132277,0.027095303,-0.07850352,-0.054792494,0.036618434,0.0708681,-0.06049908,-0.011767238,-0.0085087195,-0.020262703,-0.08104638,0.0463439,0.045755275,-0.01952599,0.074712016,-0.008060798,0.047126718,0.032935597,-0.018257968,-0.049435582,-0.0031991005,0.066330485,-0.05867119,0.045813568,0.06574059,0.03298445
-0.031386625,0.013588153,-0.03648802,0.051455177,-0.061097696,0.06362743,-0.0369492,-0.06771459,-0.06829766,0.07140399,-0.017478459,-0.0050671026,-0.06933267,-0.031777896,0.0116594285,-0.027529292,0.07912473,-0.040759828,-0.009097628,0.021638237,0.042913787,-0.06319561,0.04358197,0.014824331,0.0067585185,-0.05786501,-0.045152605,0.07069547,-0.042457644,0.018340133,0.053564735,-0.039562277,-0.021305755,0.06784896,-0.012793906,0.013648741,-0.08068658,-0.050461628,0.079504974,-0.07016729,-0.08330981,0.0046368837,-0.0025342032,0.026867025,0.008941121,-0.06884004,-0.011862323,0.047064908,0.076780714,-0.047436964,0.0810732,-0.057745323,-0.04984079,-0.040535055,-0.012596205,-0.06241786,-0.074989796,-0.035081036,-0.06735661,-0.02995959,-0.07302788,-0.05284564,0.010772601,-0.061760806
-0.044995055,0.075114004,0.07276081,-0.0033552423,0.065252624,-0.07454683,0.042603917,-0.023546916,0.00099843,0.05662995,-0.0021030828,0.00324139,0.038051568,0.014493108,0.06538489,-0.009642214,0.05661028,-0.0012950376,0.014515646,0.014487088,0.0069322735,-2.785772e-05,0.07009392,0.028331563,-0.07140272,0.05590602,-0.05698697,0.0055158064,-0.035584714,0.02819617,-0.0217328,-0.016505502,0.019656487,0.08386006,0.043230213,-0.030507002,0.064305894,-0.019872457,0.0392548,-0.06272007,0.021808349,0.043786086,0.020683274,0.032126866,0.07544314,0.025498986,-0.004247941,0.08175821,0.026111096,0.05918158,-0.076529846,-0.0715041,-0.041200973,-0.07335086,-0.026812311,-0.045148514,-0.041766036,0.06319482,0.027617514,-0.07775533,-0.06371121,0.06707131,-0.012966417,0.042268775
-0.045475647,-0.048509963,-0.07687859,0.058850337,-0.005907371,-0.04368438,-0.064311646,-0.04243648,0.0070304084,0.029259317,-0.07132084,0.019745914,0.05676099,0.05392487,-0.039365564,-0.06849289,-0.017546842,0.027161429,-0.02184241,0.08197559,-0.02693341,-0.017972454,0.06614603,0.062227312,0.0659445,0.042895976,0.040980604,0.04216484,0.07349021,0.03950278,-0.019309426,0.008250631,0.010236241,-0.0024645333,0.08675901,0.059538536,0.0485695,0.044346504,0.0008033245,0.06916597,0.03917171,0.028000817,0.010337532,0.07859605,0.044790737,0.009365562,-0.057180043,0.0057887333,0.06593138,-0.06922387,0.010642592,0.07310793,-0.045513183,-0.057755724,-0.061653018,0.073490925,-0.005085237,0.020456979,-0.06105452,0.01709082,-0.02526394,0.016023977,0.014125442,0.054291345
-0.02299248,-0.07898513,-0.04789525,-0.024099011,0.08484858,-0.058201842,-0.03800363,-0.021734238,-0.01916328,0.025464728,0.029563908,0.0012567404,-0.012037227,-0.027042689,0.023441639,-0.03993825,0.017117148,0.038880803,-0.04198713,-0.04988515,0.0018979993,0.07276693,0.07280289,0.0071027745,0.062178534,-0.064460345,-0.0153037775,0.07305479,0.06742783,0.046855748,-0.07521551,0.07149672,0.0121762855,0.104329675,-0.060944166,0.039364226,-0.08684083,0.023996,0.046451453,-0.029923169,0.039101627,-0.035533674,0.0731923,-0.0068574366,0.030445114,-0.04012062,-0.0215276,0.06741719,-0.08471218,-0.04469748,-0.009795619,-0.017613478,-0.059743192,0.039216843,-0.07734377,0.020337991,0.030458935,0.052632015,0.022412032,-0.065710574,-0.044384167,-0.0813433,0.0012424013,-0.041794114
-0.030922018,-0.10269791,-0.059138782,-0.049085565,-0.002063231,-0.016659087,-0.12452926,0.04441702,0.0036151474,0.0056470633,-0.011533498,0.039830133,-0.021560736,-0.030404609,-0.028438697,-0.0088166045,0.13310508,-0.029065253,-0.023960734,0.04616839,0.021326354,0.062775925,-0.0013298148,-0.099909835,0.1517725,0.02719709,0.009666843,0.010214229,-0.05018096,0.069439836,0.09595761,0.06492864,-0.030277139,0.005266331,0.019315429,0.08770313,-0.086007096,0.1267976,-0.0043090214,0.024126122,-0.1448177,0.03173572,0.08469785,-0.050870653,0.02420894,0.093563035,0.050251544,0.045863546,-0.063088425,-0.064000174,0.08225533,-0.014912436,-0.08166923,0.059356343,0.0422135,-0.068607144,-0.07007796,0.046451643,0.08376338,-0.03943877,0.09556822,-0.09492493,0.120594874,-0.01545684
0.032530427,-0.05148581,-0.13220622,0.0032310346,0.12757099,-0.024146408,0.024165701,-0.03738685,0.07354364,0.0051665306,-0.09832701,0.045527503,-0.066575795,0.025742661,-0.0073448084,0.07354926,-0.02704732,-0.03147217,0.0015534663,-0.04383429,-0.10211793,0.034080453,-0.0042308434,0.075774536,0.038318332,0.0068783937,0.036510672,-0.026768558,0.036273215,0.047053907,0.008667882,-0.020760635,0.050478872,0.09435237,0.047726296,-0.06435993,-0.041983914,0.10361905,0.008422904,0.014609194,-0.039190613,0.04734954,-0.00234044,-0.038353108,-0.070157565,0.05424803,-0.08254845,-0.04012943,-0.05074952,0.100216,-0.08013101,0.12278979,0.043269366,-0.005233578,0.05843387,0.014261866,-0.0030522377,0.07336977,-0.03384504,0.059557594,-0.08445824,0.03550159,-0.04810829,0.011773739
0.008687995,0.016314723,0.021302769,0.08476013,0.10228876,0.08403691,0.008755167,-0.06420841,0.107805856,-0.010819143,-0.16331957,0.1187545,0.017104164,0.019817883,-0.03922788,0.0433371,0.050616175,-0.08331662,-0.048542656,-0.02243914,-0.073449254,0.038411252,0.08365733,0.019064287,0.073936254,0.003213098,-0.03567699,0.036461174,0.076871306,0.061298393,-0.049346138,-0.11897603,-0.019375617,0.16478303,-0.03517627,-0.011387457,0.058816638,0.112082675,0.166064,0.056876816,-0.02246945,0.014924128,-0.011708781,0.039813813,0.021295156,0.09170324,0.059087995,0.025357088,-0.12138861,0.024102118,-0.023491003,0.08041977,-0.04295222,0.004667837,0.15217644,-0.014846303,-0.13706438,-0.04861813,0.012951896,-0.01399028,-0.11152309,-0.11113528,0.14520204,-0.02429888
0.09049319,0.048562784,-0.06145548,-0.007361409,0.1103456,0.019624509,-0.049587153,-0.025973594,0.11087561,0.047848776,0.0022451903,-0.020255651,-0.0059481338,0.006126199,-0.10878735,-0.013091354,0.017323093,0.015204737,-0.014196969,0.018129043,-0.037125614,0.070966,-0.011294642,-0.07826184,0.013806393,-0.091893494,-0.02007305,-0.06698636,0.02165508,0.120462686,-0.0023492833,-0.01367849,-0.055341996,0.042741243,0.026008239,-0.022593714,0.074984476,-0.027350603,0.05811713,0.074022934,0.034240793,0.11643706,-0.03902914,-0.059161384,0.11090626,0.12976414,-0.0108370595,-0.009067914,-0.061483942,0.025754772,0.017209403,0.12034616,-0.11085118,0.024682954,0.11539611,-0.027388746,-0.011968868,0.07137764,0.05740405,-0.048641674,-0.1344761,-0.10606245,0.12628327,0.003677439
-0.05814679,0.08675829,0.11853832,0.08575256,-0.012782027,0.012222384,-0.025208075,-0.10544387,0.09715824,-0.0058605964,-0.072038405,0.13190033,-0.03265435,-0.1450002,-0.020982405,-0.08407649,0.045561608,-0.09113872,-0.0021219065,0.013469661,-0.13031955,0.04412988,-0.019362917,-0.030643491,0.04885987,-0.14738293,-0.04609167,-0.09074794,0.013093057,0.1026049,-0.024948653,-0.01044387,0.02126167,0.05553768,-0.057444897,0.073763065,0.06669324,-0.041948225,0.082517624,0.05524122,-0.04216291,-0.029558765,-0.10181213,-0.008531013,-0.025901493,0.09752837,0.011808926,-0.06155954,0.015183276,0.15600725,-0.044727426,0.08043699,0.00843609,-0.081359334,0.06395043,0.01805762,-0.067441076,-0.061408803,0.07281481,-0.08797386,-0.14928888,-0.07457264,0.107050024,-0.053962216
-0.009134587,0.0021916756,0.118341364,0.12893218,-0.11490649,-0.06756515,-1.1322749e-05,-0.005124019,0.079416566,-0.053487927,-0.08519416,0.052233435,-0.034402784,-0.10738652,-0.00905195,-0.05356219,-0.0015369495,0.017989796,-0.05373943,-0.088855624,-0.06560898,-0.016482927,0.0044038203,-0.033068307,0.11409023,-0.011049047,-0.08012846,-0.11853355,0.1280973,0.18146746,0.029350054,-0.10079863,0.13977286,-0.04271319,0.011795458,0.013352934,-0.018039167,0.024179459,0.11370488,0.07399609,-0.09982272,0.0450199,-0.06564497,0.10782781,0.04414154,0.14181812,-0.04379387,0.07383454,-0.00957537,0.09653625,0.0061191674,0.15110652,0.037984192,-0.022265214,0.056671526,-0.036864053,-0.1653072,-0.07268423,0.06427544,0.07608883,-0.12663533,-0.0810923,0.0014406544,0.007010784
0.016084237,0.077884786,0.04081716,0.15086181,-0.02854341,0.014849907,0.0010385169,-0.01278714,0.09129275,-0.0014192243,-0.05093387,0.035341226,0.028552806,-0.13129014,-0.08275293,-0.1255812,0.03397519,-0.12510169,0.054932013,-0.113849126,0.02044172,0.036740836,0.011543104,-0.033165723,0.16999824,-0.1521629,-0.11570039,-0.0067907325,0.010786794,0.17610656,-0.12044449,-0.07481832,-0.023192268,0.046167124,-0.034417946,-0.04556685,0.14556827,0.053542357,-0.044433616,0.082,-0.054433897,-0.052448515,-0.06798092,0.04948179,0.076474234,0.069028154,-0.004295961,-0.0013777777,-0.14101541,0.18115239,0.048947923,0.01611482,0.0046639964,-0.002892812,0.04573963,0.087523766,-0.16103198,-0.0053176307,0.05509804,-0.0045562275,-0.10386098,-0.13739337,0.06868433,-0.012852507
0.044160105,0.055014312,0.04105756,0.010013425,0.024545103,-0.0055495333,-0.123414196,0.006918889,0.06890622,-0.0968046,-0.029036725,0.16479106,-0.07253327,-0.11483388,-0.13299143,-0.069131196,-0.03491154,-0.14647448,-0.030108001,0.010815413,-0.047537662,0.116704375,0.1668539,0.059682686,0.14460161,-0.05934836,0.01621515,-0.16013156,-0.009951158,0.073653884,-0.04509989,-0.027367203,0.045655083,0.077713065,-0.0033270128,-0.011408844,0.08594929,-0.073562205,-0.023603821,0.018154811,0.0670297,0.07738027,-0.11845881,-0.022943808,0.102843024,0.08776902,-0.11583821,-0.0044702645,-0.12381688,0.17351589,0.019909007,0.13574405,-0.062894285,-0.006133518,0.072559565,-0.022649223,-0.19115998,0.047226314,-0.05605557,0.11814353,-0.03284756,-0.14922214,0.050268788,0.059256434
-0.020485485,0.051914852,0.08728896,0.08503217,0.02198909,-0.027486533,-0.018851724,0.014829609,0.103854775,-0.06802178,-0.032028593,0.116940066,-0.08386301,-0.07906606,-0.17418066,-0.10340483,0.15456733,-0.015186651,-0.062290844,-0.040640008,-0.076883085,0.13924374,0.029255966,-0.11479207,0.12195452,-0.104019105,-0.06756145,-0.061271667,0.11746761,0.16453765,-0.11962083,-0.052081425,0.006437274,0.051912267,0.009536286,0.0039519407,0.06818958,-0.0060721315,0.06743776,-0.022752553,0.04184733,0.049396954,-0.14958222,-0.0645884,0.082748815,0.20947605,-0.06891021,0.1135132,-0.10154051,0.06154865,0.03378016,0.06681027,-0.09951984,-0.07308027,0.050566096,0.15901805,-0.11894413,0.013872455,-0.061493862,0.0947474,-0.09871843,-0.17836757,0.013260001,-0.0015530849
-0.07544503,-0.003989856,0.075053185,0.0021298865,-0.0042463974,-0.11119121,-0.08246594,0.021106066,0.05449983,-0.16536483,0.025916332,0.10312801,-0.0706351,-0.0997924,-0.08350731,-0.0109661855,0.07771304,-0.0020909703,-0.016566139,-0.03717238,-0.072842345,0.08554496,0.103197776,-0.06477087,0.11981981,-0.13201144,-0.095860876,-0.16745383,0.05362542,-0.008214775,-0.055096794,-0.07049845,-0.15478127,-0.013593151,0.09534194,0.056666292,0.022579517,-0.06546314,-0.0044782655,0.09762799,0.040790007,0.103866436,-0.14219958,-0.0315483,0.13275956,0.103531964,0.032548413,0.013411701,-0.10861306,0.017645719,-0.049161237,-0.005327226,-0.12671915,-0.012916009,0.08016336,0.018404808,-0.14711627,-0.07211737,-0.020340756,0.062026296,-0.058248375,-0.04585325,0.04033494,-0.024328835
0.041643467,0.07326933,0.05620881,0.0678164,0.0030971991,-0.06379922,0.002058725,-0.057907537,0.08571232,-0.1202334,-0.0445126,0.07037936,-0.11595231,-0.026122024,0.035026677,-0.12508343,0.048843775,-0.10921254,-0.019492693,0.084891245,0.018972319,-0.022538021,0.10552615,0.0631906,0.16060397,-0.007868792,-0.037911322,-0.15656233,-0.057063907,0.0033506579,-0.037189394,-0.1326379,-0.03318459,0.08972299,0.13011035,0.082365654,0.06892414,-0.04152329,0.08354989,0.07072451,-0.08111637,0.09979952,-0.14059658,0.046314504,0.18736488,0.1452758,0.05525474,-0.020628398,-0.04970547,0.054596025,0.04508054,0.026294177,-0.047539942,-0.06377724,0.063726515,0.14669937,-0.099713504,0.017476125,-0.037502144,0.12371912,-0.10497256,-0.086619765,-0.06209083,0.0763908
-0.026245398,0.053839512,0.044800997,0.045517497,-0.01138091,-0.1042907,-0.13514632,-0.035704564,0.1372922,0.008060449,-0.012696517,0.10968279,-0.07804901,-0.03317214,-0.040152017,-0.13518316,0.108655624,-0.18043004,-0.063485324,-0.03599395,0.07041298,0.087788746,0.13661976,0.12780745,0.11631905,-0.08544903,0.10344746,-0.07195577,-0.10210922,0.10223438,-0.13623841,-0.07996032,-0.09604878,0.10851591,0.076677,0.0077169496,0.045612704,-0.06384198,-0.04461177,0.0028795481,-0.016731542,0.12592015,-0.019329863,0.06788398,0.1315387,0.1265418,0.028874256,0.10890764,-0.13880639,0.0388145,0.08698397,-0.08495039,-0.06323978,-0.0058248877,0.099523954,0.034334406,-0.18357629,0.0318185,0.0370008,0.18896449,-0.14206024,-0.13464648,0.08822913,0.0062925937
-0.07821181,0.025804367,0.070891716,-0.095197484,0.022996267,-0.18769643,-0.030631099,-0.033757463,0.10684376,-0.06522045,-0.042354852,0.031476263,0.0073280092,0.019582273,-0.097554505,0.0044936524,0.07776967,-0.05123773,-0.05721203,0.064857714,-0.0136451805,0.18640186,-0.0007896801,-0.0031660055,0.013233787,-0.012338302,-0.023489166,-0.108242,0.07262477,0.08265238,-0.009815099,-0.19477968,-0.09519199,0.1301512,0.020224405,-0.024644649,0.030077184,-0.015460974,0.040426496,0.06896234,0.021185378,0.045638926,-0.07734565,0.0065484503,0.103088446,0.11875016,0.06408837,0.01649938,-0.046680592,0.036630016,0.07773359,0.03762725,-0.013400927,-0.021647813,0.097731344,0.10232175,-0.00949885,0.054844145,0.08098761,0.09474714,-0.051879913,-0.07790729,-0.029457513,0.0953433
0.010429181,-0.0071449606,0.008884849,0.06179326,0.0885913,-0.13348883,-0.0059051258,0.043681502,0.08443558,0.05089553,-0.12537056,0.13548328,-0.034120873,-0.03943297,-0.08250913,-0.025060574,0.121664695,-0.120974675,-0.0011291414,0.012161587,-0.021004088,0.23777026,0.02273471,-0.032169838,0.13065282,-0.060948916,-0.094917454,-0.02839034,-0.026479026,0.08963607,0.046555918,-0.13844405,-0.04648957,0.0927117,-0.030275112,0.009719986,0.054566808,0.011375312,0.050026838,-0.017966919,-0.110395215,-0.0075103287,-0.1385388,-0.075840324,0.06077334,0.04778475,-0.024241107,0.026503088,-0.030363243,0.09072669,0.035685774,0.10972259,-0.050276153,0.009426062,0.03076748,0.08609366,-0.03804891,0.066021554,-0.05399167,-0.06548081,-0.11821712,-0.07187874,0.032575686,-0.022604128
0.04390425,0.012263107,0.02476178,0.053463213,0.12808807,0.008210141,-0.1079483,0.087352864,0.038176864,0.057075422,-0.06355288,0.09497298,-0.03731187,-0.0022649302,-0.028203923,-0.066394866,0.056883678,-0.12093998,-0.14939938,0.06660997,0.023842733,0.19910258,-0.07524814,-0.05480453,0.10033537,0.040464677,0.05210777,0.032899104,-0.0005543272,0.13031992,-0.0010640366,-0.20365089,0.0037760641,0.18459357,0.066789806,-0.007093947,0.09954272,0.025503032,0.0042018313,0.10239179,-0.10029712,-0.034458693,-0.1651899,-0.050107524,0.09346961,0.13680726,-0.0056045516,0.012573328,-0.011730271,-0.043978505,0.02654768,0.08927596,-0.05164176,-0.009337445,0.14479543,-0.03618901,-0.09645575,0.12793145,0.0057187355,-0.054236792,0.0040670163,-0.051794454,0.06725834,0.011479304
-0.07234324,0.039729923,-0.07413836,0.06261018,0.06968687,-0.027957406,-0.05864624,-0.04905933,0.023787942,-0.00868644,-0.08982508,-0.096629314,-0.08117048,0.0265185,0.048447397,0.010270059,0.16941531,0.050017778,-0.02241261,0.064395115,-0.10330145,0.042173676,0.009801834,0.021465195,0.06822402,-0.02541574,0.0742744,-0.018143138,0.12923588,-0.039527703,0.06682693,-0.12595268,-0.018370353,0.18967716,0.014073663,0.0051107546,-0.08071294,0.11691513,0.10960296,0.14225753,-0.054774158,-0.029527333,-0.064677015,0.017074175,0.0673317,0.13264166,0.061429877,-0.0074436073,0.0021982524,-0.028713102,0.048634093,0.069311656,-0.09389194,0.0636587,0.06686565,-0.019608304,-0.138411,0.04932761,-0.02348099,-0.090799175,-0.0108389435,-0.005346985,0.113512486,-0.0004633704
0.05830395,-0.14453211,0.025764652,0.07284454,0.053254128,-0.065037265,-0.020363886,-0.0058981827,0.132302,-0.078429304,-0.03938711,-0.03871299,-0.12285593,-0.055642106,0.010843221,-0.09437475,0.008331393,-0.06894264,-0.07643819,0.03342742,-0.1125135,-0.010657736,0.019256836,-0.05392887,0.046839528,-0.059681553,0.10968429,0.043322243,0.0882777,0.116764486,-0.054630186,-0.13619293,0.031100564,0.079608314,0.034573644,-0.039097134,-0.0011339706,0.15523425,0.058570027,0.0049108565,-0.05427595,-0.04324347,-0.09396022,-0.04036953,0.058490835,0.2387252,-0.07433825,0.029816028,-0.091158584,-0.071838066,0.0058185505,0.058879495,-0.07525899,0.094050944,0.16380094,-0.048959788,-0.027403621,0.062787056,-0.01619241,0.0031597759,-0.07750037,-0.05059122,0.016302453,-0.041276444
0.055432327,-0.11038767,-0.10154641,0.008724906,-0.042119358,-0.028269654,-0.07551214,0.01318238,0.028563762,0.04779146,-0.050108142,-0.035719503,-0.08784902,0.04033617,-0.032972664,0.058242597,0.08119401,0.06246426,-0.113789715,0.023384178,-0.062785655,-0.017220886,0.071481965,0.04215506,-0.010447622,-0.07431697,-0.03853836,-0.010857238,0.14183132,0.049207963,0.04307914,-0.10584942,-0.052488986,0.07688562,0.055993572,0.08505404,-0.08035148,0.0076456666,0.09826885,0.073479496,-0.14201792,-0.078849636,-0.11382934,-0.009050379,-0.04885901,0.18795188,0.036956493,-0.01044634,-0.009699945,-0.019910743,-0.008808151,0.079027385,-0.014231341,0.026143644,0.014539057,-0.0072338893,-0.16997099,0.052842602,-0.09137852,-0.025638396,-0.021800023,-0.07110079,0.023825536,-0.03678514
-0.07549289,-0.054632585,-0.017820124,-0.0021526197,0.051149648,-0.12673081,-0.0851896,-0.036221053,0.07488321,-0.039479937,-0.087469704,0.019139066,-0.04193152,-0.07806015,-2.7478116e-05,0.009148807,0.09405888,0.07381657,-0.10247241,-0.049864095,-0.042151526,0.03240756,0.062287286,0.01835884,0.05782697,-0.0027595074,-0.037476894,-0.029914083,0.12422822,0.030834878,0.079928495,0.045717556,0.030553354,0.032414444,0.09892186,-0.018256467,-0.025754763,0.1225883,0.09269021,0.04635124,-0.03588593,-0.0021712682,-0.017139776,0.0856071,0.0026724448,0.039455354,0.033232257,0.00013529383,-0.014338424,0.039415754,0.021875916,0.14110114,0.038651314,0.10509631,0.10376008,-0.09944742,-0.01945135,0.064982414,0.023776444,0.019703735,-0.031008143,-0.041932706,0.113759905,-0.03918125
0.054009624,-0.0068168333,0.035462223,0.1305301,-0.071701646,-0.020757409,0.020721523,0.02746549,0.055097956,-0.053519882,0.055150863,0.015597965,-0.0720467,-0.009234479,-0.039220493,-0.1136647,0.07310872,-0.102540694,0.024033878,-0.000978543,-0.025517337,0.03925636,0.06079995,0.019232407,-0.021498123,0.0072754775,0.046322685,0.027801847,0.12898296,-0.0052323984,-0.074750364,0.05227468,-0.082127936,0.11251717,0.0956658,-0.010860388,0.026910245,0.0040448443,-0.025495334,-0.04334703,0.012853748,-0.01142941,-0.10448189,0.04344011,0.045261648,0.016236505,-0.022943072,0.034033887,-0.119561814,0.015387757,0.07741849,0.085395165,-0.056202665,-0.05595679,0.09849154,0.011206621,-0.1775835,-0.024408082,-0.04316499,0.03834201,-0.06817921,-0.052339017,-0.029657677,0.023220263
-0.07013227,-0.020918636,-0.019424532,-0.033612676,0.0450483,-0.113573365,0.042451557,-0.087938055,0.0499224,-0.11695366,0.008583841,0.022053422,0.0077736373,-0.11118588,-0.04457338,0.011809962,-0.07657048,-0.046363246,-0.03709809,-0.12881282,0.030104753,-0.019606136,0.0014271894,0.0064745108,0.08577016,-0.0034786998,0.048120946,-0.07990085,-0.048104562,0.070386134,0.0072883074,0.02517504,-0.1392602,0.03841598,0.0680349,-0.020951476,0.056052316,0.0018554511,-0.011206167,-0.013770739,-0.05677304,0.06854872,-0.07881465,0.043917265,0.10097896,0.10443078,0.10066414,0.048016768,-0.10594254,-0.02347836,0.008481144,-0.014110441,0.041800488,0.049698867,0.0001488037,0.039938148,-0.053718384,-0.0064027235,-0.01993591,-0.026185831,-0.027082836,-0.06486676,0.10589385,0.0132783055
0.03846793,0.03709141,0.033019602,0.052744567,-0.016539058,-0.011648173,-0.064849585,-0.08295957,0.025484703,0.059741456,-0.053300984,0.036718994,-0.039588977,0.06844989,0.06661116,-0.057858683,0.05999519,-0.07177708,-0.0011105805,-0.064735994,0.004206884,-0.029061344,0.03337536,-0.07964962,0.103514664,-0.01805594,0.05786318,0.008285282,0.06901955,-0.022173477,0.10506289,0.008588821,-0.043972913,0.04931403,-0.04242566,0.034666643,0.04555965,0.014336655,-0.08742046,0.03746842,0.029239217,0.025751347,0.01333505,-0.05197253,-0.062392388,0.0685819,-0.04264286,0.06408143,0.03360034,-0.051407628,0.013248457,0.0059907017,0.04176947,-0.0192526,0.017666165,0.020435013,-0.0108733615,-0.028427787,-0.016895927,0.05459659,0.009333611,0.0031047864,0.0109564755,-0.021202073
0.035640806,-0.053432964,-0.00042578578,0.062494196,-0.06949363,-0.005381055,0.0675629,0.069534115,-0.048187535,0.067455776,0.047720052,-0.033510026,0.05906824,-0.051343314,0.038891286,-0.026211191,0.03226801,-0.052800436,0.06706975,-0.055425406,0.01861009,0.08121053,0.0033045262,-0.045427576,0.076849885,0.0074046254,0.031890847,0.075316586,0.051058672,0.022211567,0.08231827,0.016018532,-0.046378754,-0.043532763,0.02578587,-0.046800066,0.04903985,0.06641773,0.05827885,0.061853357,0.03913098,-0.023620054,-0.054864734,-0.08063752,0.050449632,-0.04499052,0.03109391,0.03653256,-0.07356599,-0.00781998,0.009227484,0.055124618,-0.0739344,-0.049238928,-0.066656075,-0.026128765,0.055532537,-0.059082173,0.013132989,-0.050004978,-0.07604009,0.020306908,0.035325505,-0.048799384
0.06975984,-0.0013228133,-0.018615842,-0.063613966,0.06617824,0.007879779,-0.04904742,0.05816432,0.00778386,-0.019924141,-0.010889523,0.06766968,-0.0005804226,-0.08371503,0.034842648,0.081971474,-0.08360409,-0.055812217,0.07227113,0.05829986,0.06589494,0.034902632,0.07777677,-0.056344636,0.00058006495,-0.06185647,0.06423903,0.049055018,0.03533026,-0.030056655,-0.040996153,-0.014760137,-0.012150027,0.04820352,-0.037645962,-0.08239806,-0.020183548,-0.04234602,0.075362794,0.051042087,-0.047193117,-0.01901403,0.07148773,-0.08281644,0.045759745,0.07850257,-0.06225231,-0.03777718,-0.011041716,0.026314132,-0.01129134,0.06928917,-0.048313778,-0.01248534,0.0019946247,0.055849485,-0.08113663,0.05976989,-0.06703034,-0.041960064,-0.07370126,0.017614111,0.07399977,0.054044433
0.047159128,0.013858452,0.06078159,0.014679998,0.01858855,0.022526063,0.07724518,0.029080227,-0.026967257,-0.05595559,-0.013930969,0.0034157261,-0.044629335,0.024949282,0.032679,-0.08396427,-0.04772156,-0.050618693,0.067543484,-0.08161991,-0.036342222,-0.069510095,-0.07025015,-0.07662772,0.044769235,0.081999026,0.05937659,0.05326543,0.05093295,-0.009812638,0.057036288,0.008413821,0.08350564,-0.06621076,-0.0787161,-0.034182742,-0.047924496,-0.016819857,-0.0261922,0.07348595,-0.080321886,0.02839598,-0.00070773065,0.016102739,-0.06333184,-0.056410834,0.031343833,0.024056204,-0.02957566,-0.026754092,0.061570935,0.06812788,0.049962558,0.07118923,0.07298655,0.04446531,-0.010047562,0.018609948,-0.08073794,-0.05944328,0.00015111268,-0.06892265,0.06014485,-0.041976873
0.058922388,0.033752225,-0.020340517,-0.06415695,0.072306536,-0.06799756,0.0065126047,-0.037885718,-0.05391185,-0.0075352415,0.044117965,-0.011783086,0.072464444,-0.03460251,0.06051611,0.062575616,-0.020452,0.02650489,0.0774987,0.024813637,-0.016547017,-0.04944928,0.030687258,0.06069929,-0.0046446472,0.075774945,0.06373157,0.034384936,0.051203527,0.035402954,-0.0613923,0.04474128,-0.015809417,0.03419859,-0.051907957,0.052354403,-0.048268635,-0.052460887,-0.0599124,-0.048722256,-0.011358403,0.0359466,-0.024231944,0.027061455,0.027347334,0.0720673,-0.050209917,0.003495805,0.068543576,0.01828187,0.04215125,-0.05715567,0.056011,0.012173466,-0.05737575,-0.031748112,0.0357617,0.019902423,-0.060056552,0.034958765,-0.041268878,-0.018537007,0.00271672,0.046092518
-0.0019367263,-0.056082193,-0.05892061,0.07815524,0.048915703,0.057552017,-0.08415642,0.07019092,0.0400492,-0.06683423,-0.034717593,0.04856632,-0.004787742,0.016640436,0.038423397,0.0497813,0.048553865,0.017289476,-0.092096046,-0.040104732,-0.028945342,-0.015916474,-0.009539507,0.054897796,-0.07451732,0.06514052,-0.03748799,0.043486305,0.031818815,-0.027846921,-0.040502056,-0.048550647,0.029555745,-0.039617382,-0.03579274,-0.0227504,-0.05111406,-0.09597945,-0.027485833,0.04238767,-0.05169616,-0.02350539,-0.061435997,0.053709887,-0.05269618,0.04375659,-0.049418647,-0.0002924936,-0.037669804,-0.046317033,-0.027028052,-0.031276695,-0.036970675,-0.03492214,-0.012669168,0.09665301,-0.020034883,-0.057449155,0.026520297,-0.06357492,-0.040012494,-0.068115085,-0.034309667,0.006828829
0.03151606,-0.034354158,0.005847233,0.08270924,-0.013055087,-0.004226967,-0.07608879,-0.10122871,0.09138203,-0.053820055,0.08864763,-0.004923683,0.004794648,-0.027406892,-0.11633019,0.028387127,-0.020232765,-0.09936737,-0.042065475,-0.034142163,-0.097133234,0.08111046,0.081997335,-0.010361961,0.09120857,-0.000783578,-0.088415645,0.05344307,0.068875864,0.02847717,0.013940116,0.06674085,0.0622198,0.04072709,0.03977842,-0.02517989,-0.071738236,0.090685286,-0.07950374,-0.08451369,-0.05964024,0.035851654,-0.104226634,-0.08501943,0.076074325,0.009426866,0.024720069,0.09513798,-0.006944517,0.025308352,0.0017568521,0.042055827,-0.0647133,0.051312916,-0.02835852,-0.046573702,-0.043455493,0.0145727815,-0.054304924,-0.005166353,-0.043073166,0.010929808,0.13353212,0.10151189
-0.055912323,-0.035808485,0.07755588,-0.045024686,0.11037054,0.0062113637,0.027453795,-0.019812347,0.06692293,0.09770546,-0.10629948,0.0007463107,-0.047065653,-0.09684497,-0.005249147,-0.07539566,-0.0015460016,-0.07220002,-0.04672273,0.000808438,-0.06445335,-0.026007483,-0.03245563,-0.039813753,0.07860152,-0.11228651,0.037300188,-0.06080421,0.04326228,-0.05508344,-0.0063418983,-0.017750511,0.029405938,0.09228113,0.021543127,-0.07104758,0.081351265,-0.008953553,0.06770135,0.015316735,0.013395532,-0.008104496,-0.116266616,-0.026730862,0.048540547,0.10120849,-0.025053982,-0.09802332,-0.030878358,-0.03347995,-0.008420987,0.042106107,-0.06810647,0.081497245,0.04510434,-0.07743919,-0.047129348,0.07753995,-0.070788786,0.007498081,-0.042789612,0.048237663,0.11941437,0.048937175
0.005691708,-0.04131472,0.033208676,0.0434304,0.08328792,0.031630866,0.010196148,0.01878966,0.013408422,0.05865676,-0.04886019,-0.075572774,-0.045668673,0.0814397,-0.11659334,-0.10292994,-0.06595915,-0.043578487,-0.11452126,0.053058725,-0.021119477,0.041510247,-0.010604262,0.07052456,-0.02465557,-0.09536796,0.06802508,-0.04107828,-0.08236888,-0.07165503,-0.055840887,0.011165275,-0.02597906,0.02742906,-0.009134461,0.08176382,-0.007926415,-0.050031673,0.024906002,0.030775892,0.054327276,-0.11007906,0.030500976,0.03433893,0.03643595,0.06405513,0.037307415,-0.10023513,-0.037407078,0.027039856,-0.06250782,-0.038388062,-0.048885413,0.034651153,0.055859715,-0.05057286,-0.07286268,0.06558387,-0.063983485,0.00013138699,0.060357,-0.038382508,0.14316416,-0.036979556
-0.060997155,0.027663378,-0.0785525,0.091865346,0.025710782,0.022617787,-0.06072719,-0.06993091,0.11117792,0.02636756,-0.05289298,0.07666755,0.017519364,-0.0029120827,-0.11740928,-0.073927425,-0.0042266534,-0.026822131,-0.01892667,0.020526223,0.04622672,-0.042927753,0.024856383,0.033919297,0.14651959,-0.103254475,0.028382802,-0.07091644,0.096963525,0.117772706,-0.0219386,-0.00248344,-0.032971065,0.070939615,0.08434056,-0.038967114,0.13318631,0.03076929,-0.009328831,-0.09410784,0.0004739051,0.0074881655,-0.089329705,0.07665034,0.027831985,0.10974906,-0.05288042,0.009647422,-0.11007223,0.00875244,-0.06298219,-0.023799777,-0.12959033,-0.07022529,-0.0028737038,0.009136129,-0.07759313,0.077255666,-0.024331316,-0.081560925,-0.021691207,-0.01993292,0.16935706,0.026982978
-0.007867304,-0.023290081,0.050415955,0.0759595,-0.010020102,0.013924788,-0.1333381,0.039649036,0.017930891,-0.027954726,-0.101891145,0.020596115,0.008000642,-0.019479558,-0.06573529,-0.13851936,0.018552946,-0.06571886,-0.079415135,-0.0524999,0.008798141,0.034062468,0.11964334,-0.053995866,0.17372343,-0.07789051,0.01489776,-0.019546164,0.099090375,0.06513954,0.052554987,-0.06269442,-0.060290344,0.06701636,-0.0034368667,-0.059977327,0.11496125,0.037722383,0.08457772,0.018558811,-0.10790625,0.07736305,-0.08261375,0.14402793,0.105799094,0.14047045,-0.032396033,0.01745194,0.020336397,0.11333673,0.031902984,-0.023925511,-0.14982726,-0.053811703,0.057380527,0.009579125,-0.07585359,-0.03076018,-0.08953731,0.014303146,-0.07711909,-0.110864244,0.15509613,0.10548551
0.012381476,-0.034756444,0.050737042,-0.05325144,0.037505213,-0.08186448,-0.021481987,0.017725645,0.010411565,-0.041202,-0.03598906,0.17412311,-0.08780411,-0.18031842,-0.17980103,-0.083296634,0.122389935,0.0052869734,-0.027752504,-0.043714993,-0.113830976,-0.09086169,0.187446,-0.1020203,0.034746222,0.003881086,-0.12131385,-0.10409655,0.13700269,0.029463315,0.010871585,-0.10303561,-0.015551917,0.015521716,-0.011208684,0.086143866,0.04443525,0.03682026,-0.0793463,-0.045350824,-0.006453126,0.03168834,-0.012746185,0.012237733,0.0010704374,0.038651966,0.030722525,-0.021065563,-0.0021852653,0.11735065,0.0371214,0.1198895,-0.12733644,-0.07126128,-0.03874423,0.1304973,-0.13027175,-0.07963554,-0.049239755,0.00016644655,0.069192,-0.13238385,0.08033599,0.031950843
-0.016817836,0.12025374,-0.038145687,-0.037831523,0.017896356,-0.12495369,-0.049343478,-0.06712147,0.0013546888,-0.09410644,-0.13480803,0.14646587,0.02623452,-0.18834479,-0.18928833,-0.18998255,0.10117437,-0.11778347,0.009161227,-0.13415757,-0.03755819,-0.035511333,0.04612427,-0.10352723,0.053747833,-0.03442085,-0.047652833,-0.02613295,0.13681296,0.16551119,-0.057269,-0.05038865,-0.06406445,0.008779402,0.00609632,-0.0010750641,-0.048170507,-0.021418508,0.0074000526,0.06882167,0.019626504,0.0088778045,-0.061845344,0.133935,0.004336629,0.1458045,-0.028497977,-0.03239092,-0.10332878,0.09343204,-0.044174194,0.06436392,-0.0025709425,-0.051143285,0.0287065,0.07606507,-0.2665549,-0.07058206,-0.05050631,-0.0029552414,0.029814795,-0.10098314,-0.07205106,0.122279674
-0.060243536,-0.021077067,-0.033723418,0.04726576,-0.004244472,-0.13856381,-0.096464574,-0.07923535,0.05529506,-0.008281574,-0.050718974,0.1873479,-0.055199165,-0.14914098,-0.20593745,-0.048521835,0.07000302,0.015818214,-0.07405564,-0.17327455,0.050832175,-0.04026665,0.19682197,0.0067786123,0.07062488,-0.055794552,0.022608642,0.014610692,0.049536604,0.16799006,-0.06947147,-0.063501626,-0.024842486,0.07099828,-0.06265738,0.10447029,-0.062261336,-0.066508204,-0.0023654844,0.08331276,-0.039522048,0.045747485,0.0029383113,0.04695688,0.107283555,0.110231295,-0.0047840667,-0.08950164,-0.07762573,0.17556804,-0.031820066,0.15117083,-0.1267594,-0.08959157,-0.0033034764,0.09399855,-0.086017996,-0.045983348,-0.008771525,0.112218276,0.0016449504,-0.09070597,0.06660041,0.10108389
0.050817512,0.09668306,-0.08616296,0.009418813,-0.00087390776,-0.121234156,-0.010339489,-0.06750832,0.011109415,-0.07611182,-0.048321657,0.14560975,-0.0863592,-0.08420989,-0.08984846,-0.1700067,-0.054261092,-0.07226679,-0.09530792,-0.03511621,-0.0037743053,0.015470013,0.08645704,-0.015235225,0.18158033,-0.0037523159,0.034167804,-0.09540443,0.11326585,0.18260968,-0.073456615,-0.1198951,0.043284334,0.07137765,-0.07987153,-0.000749122,0.06636023,-0.0030420658,0.033065584,-0.040095568,-0.042179734,-0.047908872,-0.0635135,0.10548198,0.06065656,0.109171785,0.046519455,-0.008354194,-0.16310924,0.15524565,0.0013166522,0.18722671,-0.045381583,-0.04729786,-0.06756043,0.033402905,-0.1816224,-0.00012678462,-0.10950958,0.09951639,0.09642965,-0.013828737,-0.047591068,-0.046808727
0.008228304,0.106266,-0.07464766,0.013657966,0.059594523,-0.14829168,-0.15418534,-0.10424039,0.025776368,0.08406806,-0.09415394,0.123055734,-0.03210342,-0.0005009398,-0.14757654,-0.18697748,0.049260046,-0.09613984,-0.030244155,0.0035971578,0.047695342,0.021671347,0.09397693,0.022353446,0.04457921,0.009814972,-0.033361413,-0.069690704,0.05468604,0.08868757,0.015748367,-0.09040838,0.049722817,-0.049947947,-0.089735754,0.014567063,0.07645467,-0.023378415,0.04225068,0.030608792,0.024211442,-0.0356912,-0.12812778,0.08260387,0.07881625,0.11851318,0.10760449,-0.100387804,-0.0048423237,0.082400545,-0.06181777,0.10886225,-0.1967661,-0.06006274,0.041556787,0.15071549,-0.25405127,-0.046446253,-0.116290204,0.1741561,-0.027116599,-0.058530487,-0.040893126,-0.056648117
-0.03506137,0.026487185,0.07705864,0.021695182,-0.00050031475,-0.06900722,-0.065191396,-0.008086256,0.091478914,0.0013777309,0.040795516,0.08006101,-0.048236277,-0.050647855,-0.13509819,-0.16642934,0.14580995,-0.067626335,0.042049695,0.015061473,0.068483576,-0.053037785,0.09142383,-0.0069515468,0.07387352,0.05462484,-0.10742587,-0.12635618,-0.00053396483,0.1108732,-0.13206746,0.023700388,-0.030711222,0.061111774,-0.013651678,-0.05623838,0.07791924,-0.034531523,-0.08091405,-0.13731843,-0.1131591,0.07845326,-0.08428607,0.050716765,-0.0327555,0.17146006,-0.026617894,-0.08132881,-0.08391695,0.036849614,0.048696324,0.0570105,-0.0908894,-0.1618153,0.04029678,0.16126798,-0.18804055,0.01645457,-0.05734246,0.15428017,0.011148455,0.020136159,0.00678744,-0.14674607
-0.002769437,0.089064255,-0.0020270024,0.107983276,-0.007663472,-0.05345674,-0.13356082,0.06682551,0.08428241,-0.037560858,0.04246032,0.001358215,-0.09420516,-0.082959265,0.043336604,-0.07504075,0.002206537,-0.013067726,0.024067843,-0.116868466,-0.035774313,0.012626677,0.11679774,0.09556636,0.16348441,0.012732788,0.05989682,-0.00046442138,-0.037899505,0.08741429,-0.049047776,-0.0018720279,-0.08095278,0.06375748,0.05341157,-0.027368505,0.0626149,-0.108682424,-0.067164056,-0.02246923,-0.057611436,-0.03325264,0.017935276,0.059181117,0.051126942,0.059928693,0.08158826,-0.026691051,-0.011884101,0.07283617,0.09614537,0.05745481,-0.17085625,-0.027400497,0.012936957,0.08565593,-0.04533934,0.08954511,-0.03241211,0.16484089,0.0016696149,0.008815191,0.077649064,-0.019743448
-0.08225792,0.019611133,0.020350048,0.07245016,-0.08351221,-0.15438898,-0.050055135,-0.056508455,-0.0059206616,0.059643947,0.04350722,-0.014600852,-0.14900927,-0.01594134,0.045077126,-0.189853,0.014083842,0.013661001,0.03715817,-0.10255604,0.015432889,0.16338891,0.048122555,-0.04718015,0.1092888,0.10027274,0.03068199,-0.017812287,0.08047404,0.007289631,0.026493873,0.00050567684,-0.043319073,0.034743242,-0.0071852603,-0.013491789,-0.032184925,-0.021110406,-0.06338831,-0.11186389,0.022049597,-0.052038852,-0.03672872,0.049601644,0.038385496,0.11952171,0.09134279,0.10189136,-0.10180333,0.08990045,-0.062900044,0.064469606,-0.15997882,0.020270383,0.033048283,0.09525344,-0.07164249,0.040068567,-0.041813243,0.10634185,0.06219552,0.07250906,0.028833166,-0.039376896
-0.080789864,0.017211482,0.039191287,0.017508412,-0.023707023,-0.07298108,-0.18322311,0.06341474,-0.019546317,-0.07314557,-0.08905796,0.058731243,-0.07885612,0.039257005,-0.036399342,-0.058192115,0.012711377,-0.031794682,0.03980031,-0.08121882,-0.05466374,0.01980158,0.12184,-0.009586821,0.11921374,0.042243168,-0.12826867,-0.13194236,-0.01365913,0.10212053,-0.054326992,-0.014807631,0.07550969,0.007988933,0.0693738,-0.022245873,0.059472937,-0.036031034,-0.0018616911,-0.018380662,0.06883884,0.032449823,0.0029053374,0.04681185,0.045791145,0.1201297,0.05677612,0.011468167,-0.0030383975,0.03775336,0.014957868,-0.0041842503,-0.115341626,0.028755544,0.02130903,-0.0020431548,-0.045565568,0.055583056,-0.052211083,-0.0139788585,0.070872575,-0.023086043,0.074254885,-0.05916245
-0.14989181,0.05900607,0.033869244,0.071287125,-0.027035454,-0.04175871,-0.015014488,-0.012409438,0.12739511,-0.09229736,-0.04409793,-0.025798904,0.023632586,-0.10470627,0.09903737,-0.10236671,0.0828769,0.08425847,0.045679674,-0.07611778,0.029202523,0.109398715,0.07918064,0.026708823,0.11816352,0.12858373,0.023349158,-0.05735954,0.06268885,0.049097426,0.023052925,0.028024806,-0.0688275,-0.013882723,0.07118666,-0.07724372,0.0076022046,0.062998675,0.09708417,-0.1311459,-0.036344178,0.08007322,-0.08564303,0.11983283,-0.08844998,0.08786979,-0.015797107,0.087026484,-0.07094542,0.007339439,-0.017112862,-0.07655601,-0.04536822,-0.028893463,0.055440772,0.012127573,0.052965987,-0.03666701,-0.024094233,0.00702405,0.0013044972,0.08582835,-0.0052050785,-0.027395075
-0.025155896,-0.013902655,0.052412014,0.036888763,0.016841035,-0.09320443,-0.08680746,0.028469933,0.11656945,0.044160716,-0.14573158,0.06624468,-0.02227639,0.04032976,0.08744654,-0.07482123,0.031562645,-0.08820647,-0.018403336,-0.016174797,-0.09967604,0.17002416,0.107535355,-0.027140448,0.106227525,-0.07040242,-0.10510365,-0.13007006,0.08301138,0.07583079,0.0078116283,-0.081858255,0.007263303,0.060938545,0.050719254,-0.006078167,0.025475856,0.121283256,0.051236358,-0.0393204,0.0482141,-0.08781269,-0.030722076,0.06644531,-0.03385878,0.09719166,0.0513267,0.13100654,-0.06596385,-0.080172755,0.06307456,0.07584321,-0.057955503,0.03467648,0.05165479,0.008589891,0.07436207,0.09655235,-0.09378414,-0.15495135,-0.015671423,-0.023831442,-0.0043513705,-0.020921271
-0.020570843,-0.08377486,-0.11033557,-0.038598265,-0.06459233,-0.01758851,0.04486957,0.010261544,0.041459497,-0.010778839,-0.209375,-0.03533357,-0.047559433,0.0027593488,0.13489236,-0.06005199,0.046926267,-0.12187649,-0.15807445,-0.02671291,-0.109195136,0.09584183,0.028260786,0.022375284,0.04891275,-0.04071412,0.01138943,-0.041867156,0.043498326,0.081442185,0.1008603,-0.04943551,-0.071607836,0.07493563,0.07723828,-0.07569983,-0.019742249,0.08447188,0.05014119,0.028589904,-0.022825947,-0.13007407,-0.026264032,0.07557238,0.002030088,0.16368905,0.090721466,0.0052419677,-0.112383164,-0.0700242,0.032167338,0.05764703,-0.121826865,0.010569118,0.06347488,0.02052781,0.07101273,0.06910929,-0.10011027,-0.073321074,-0.07786232,0.080764554,-0.013939372,0.023879252
-0.053992994,-0.07541647,-0.05842976,-0.09581766,-0.09142155,0.052888755,-0.011214664,0.10298106,0.10272192,0.06522259,-0.23225321,-0.1063568,-0.14558816,0.017925085,0.09384423,0.024759106,-0.055886865,-0.06267319,-0.11999969,-0.015989918,-0.16584842,0.08710737,0.061520018,0.09354975,0.0484953,-0.07209875,-0.043385588,-0.13048363,0.06535855,-0.039557833,0.08228802,-0.0256484,0.006427896,0.13362527,0.035168193,0.01169123,-0.042022523,0.17494248,0.007758415,0.13148394,0.009921798,-0.12858921,-0.09113375,-0.038211524,0.008031544,0.13049373,0.11294445,-0.055346597,-0.05559342,-0.0021568942,-0.07443437,0.03462424,-0.05408125,-0.01465548,0.10136912,-0.042888243,0.07386017,0.020506203,-0.101650655,-0.12549779,-0.053602356,0.07985136,-0.028116794,-0.008736661
-0.029885614,-0.08006743,-0.11313294,-0.017355382,-0.0020947931,0.023313023,0.035405047,0.17325597,-0.028858572,-0.055008274,-0.10776939,0.016130205,-0.07585345,0.008997122,0.0840063,-0.034213476,-0.032398585,-0.037099715,-0.026717532,-0.0069856797,-0.12632152,0.12751865,0.0030300436,0.083730645,-0.03205684,-0.005241974,-0.016292851,-0.015313782,0.039411444,-0.076372124,0.12106343,-0.06882917,0.057031937,0.17178941,0.09610116,-0.0039622034,-0.056650713,0.1768153,0.03296644,-0.0131724,-0.05184091,-0.06840214,-0.1031663,-0.028250935,-0.031371202,0.13953343,0.07381855,-0.059298676,-0.023909898,-0.02987379,0.055975012,0.14932804,-0.09753973,0.03649232,0.018223496,0.023414407,-0.0026089724,0.09464683,-0.0944329,-0.13901892,0.034461707,0.025036415,0.032028735,-0.13166371
0.048604053,-0.03622257,-0.07627899,0.050551075,-0.021396156,0.02379493,-0.011743779,0.044016577,-0.06561035,-0.023747338,-0.049592327,-0.06622688,-0.03011635,-0.089908876,0.0064643268,-0.048907023,0.037539024,0.053269815,-0.097273916,0.031217672,-0.009425242,0.18026346,0.014018737,-0.0027521863,-0.062528305,0.036128633,0.06577005,0.01643955,0.005004081,0.012954885,0.09093666,-0.12588513,0.02169273,0.14247823,0.039137863,0.026189283,-0.00074540044,0.1638556,-0.012721244,-0.008621046,-0.06276964,-0.096064866,-0.10002042,0.010093304,-0.018068843,0.15211827,-0.0017047873,0.017322935,0.007837774,-0.040842105,0.014969309,0.08310376,0.020000016,0.16034251,-0.0034252354,-0.0477044,0.011078803,0.11271263,0.025609791,-0.13437587,-0.047132265,-0.045340538,0.1207721,-0.0019566533
0.06251063,-0.13211736,-0.10013995,0.09413655,-0.06961599,-0.03576229,-0.063861206,0.046484575,-0.007966457,-0.020713642,0.06608831,0.18180497,-0.025477838,-0.09020805,0.06930795,0.040747557,0.004677657,0.0128569715,-0.023461934,-0.07532912,0.012676562,0.12156504,-0.022224337,0.1474992,0.02536177,0.10247119,0.013721128,-0.060608726,0.09831398,0.04560281,-0.020300781,-0.12962484,-0.1047933,0.049821276,0.048507754,-0.010516155,0.05398014,-0.016394963,0.0461084,0.08996092,-0.080936,0.023897262,-0.109318644,0.07951991,0.033617508,0.044766873,-0.0018461465,0.020077148,-0.053649534,-0.09101636,0.08204549,0.11752291,-0.046581484,0.12437666,-0.024411818,-0.006957376,-0.07965116,0.002207123,0.0072693094,-0.09417588,0.002303642,0.03149604,0.03460263,-0.0657608
0.07709056,0.002967832,-0.029831704,0.079823524,0.04058984,0.00810027,-0.087103546,0.10612454,-0.03809986,-0.04269491,-0.054815892,0.020432973,-0.09096063,-0.10000997,0.0806972,-0.010779955,-0.051987756,-0.0613015,-0.073276676,-0.026640413,0.026991837,-0.007940445,-0.012848127,0.018506266,-0.016026273,0.021835385,-0.062062427,-0.020333523,0.028603967,0.118877314,0.03261543,0.029966041,-0.003737521,0.115899906,0.021570759,-0.013914151,-0.039992563,-0.062246047,0.070427254,-0.011892229,-0.04530993,-0.06012896,-0.027829444,-0.02483178,0.14333895,0.028529778,-0.082565874,-0.017997518,-0.05155106,0.10827475,0.083298504,0.13893326,0.0921309,0.063389845,0.061225574,-0.09109252,0.023165394,0.05554898,-0.084012374,0.075630404,-0.0065402603,-0.03570881,0.102877446,-0.0014375633
-0.05970788,-0.009948348,-0.08919057,-0.002787107,0.01787972,-0.03636032,-0.03553669,0.05754279,0.062450014,-0.10696677,0.009791799,0.10180498,0.069556326,-0.0100135,-0.007734253,0.023772836,-0.020024471,-0.036520373,0.038611315,0.042998217,-0.024199165,0.095308825,-0.04343662,0.08495855,0.0036463148,0.101333156,-0.05957865,0.05104773,-0.010042916,0.043806687,-0.022171952,-0.0026358012,0.0002831728,0.010031279,-0.029268418,0.0005074626,0.074087225,0.05454914,0.02057065,-0.030735547,0.048707142,-0.06381929,-0.105289005,0.026340922,-0.0016786266,0.06597102,-0.115143605,0.07087227,-0.08286696,0.06256587,0.056171924,0.06903073,0.023122858,0.04117412,0.09031006,-0.07238678,-0.00045121583,0.15329453,-0.0002586376,0.054661967,0.06677706,-0.12493814,0.022281485,-0.094599135
0.04814502,0.03421437,-0.079866774,-0.0051952237,-0.0700263,0.09290055,0.02495687,-0.07184419,0.026911335,-0.015150653,0.011716217,-0.0018102617,-0.034831595,-0.033627454,-0.041828185,0.044869628,0.0039694607,-0.04751617,0.07860531,0.07452145,-0.09382176,-0.034721807,-0.05032774,0.06704063,0.029066391,0.03339082,-0.06540713,0.03042239,-0.023542354,-0.02622504,-0.06319164,0.04737838,-0.024406577,-0.007165432,-0.108491614,0.016581468,0.028886158,-0.070909895,-0.06533783,0.032828763,-0.065491654,-0.0954777,0.06179396,-0.03610415,0.035501294,0.002693309,0.013762906,-0.0914306,0.01947252,0.0152916,0.0016361884,-0.015108038,0.051733278,-0.13202679,0.018661693,-0.08107134,0.039084725,0.084761,-0.03397566,-0.041051663,0.09763628,-0.06929659,0.050466668,0.017118618
-0.066921525,-0.06772897,0.009338684,-0.050955616,0.019076444,0.017053716,-0.039161883,0.042901553,-0.06252387,-0.051401794,-0.06890835,-0.071620695,0.0032084063,-0.041505985,0.040623114,0.05882383,0.06069789,-0.05548577,0.011237912,-0.0077664927,-0.038223118,-0.001392141,-0.035558883,-0.035312932,0.05297383,-0.010121107,-0.07522793,0.07972052,-0.037291292,-0.019068524,0.038973726,0.034982167,-0.0799778,-0.009405248,0.07190005,-0.029574636,0.050718673,0.083259664,-0.082047895,-0.0061095282,0.013065629,0.02670867,-0.029073548,0.026800804,0.047467194,0.02298434,0.0067605674,0.034596212,-0.06921703,-0.03165626,0.024429642,0.07398122,-0.050440527,-0.024843674,0.032465674,-0.00037169456,0.063855745,0.04645621,-0.017491117,-0.0032308474,-0.07907512,0.042468257,-0.05007162,0.03565079
0.008254528,0.035155438,0.07927581,0.05382546,-0.06321121,0.07674696,-0.0689048,-0.043055557,-0.06443647,0.012422346,-0.0058076605,0.013265453,0.010911845,-0.01516965,-0.017374337,-0.051160756,-0.075305544,0.056858562,0.04509849,0.06063684,-0.036984116,0.053929515,0.028812513,0.04415486,0.08322888,-0.038298465,-0.016263701,-0.025379118,-0.04499285,-0.042837683,-0.053054247,0.077055745,0.07882302,0.057932414,-0.06346462,0.07814851,-0.022062719,0.07364745,0.06928373,0.08281901,-0.048931025,0.015121743,-0.025410663,-0.046350077,0.038839765,0.010888979,0.0013601556,0.033222258,-0.0479032,0.019614555,-0.027983371,-0.072457805,-0.05067463,0.08062998,0.07195475,0.010543779,0.026911303,0.072152756,0.0474926,-0.0720893,0.012410335,-0.031829916,0.052529298,0.06132447
-0.071940005,0.0030619847,-0.05052823,-0.07604713,-0.030163065,-0.08042212,0.055141974,0.0062526762,-0.03509067,-0.008277559,0.01616437,0.024163065,-0.026949547,0.034220126,-0.008149582,-0.07655491,0.03795124,-0.0653321,0.052829467,-0.056256883,0.07456739,-0.058085095,0.031110633,-0.060733348,0.03776104,-0.043813854,0.054835994,0.028209927,-0.027104812,0.07043957,0.07786704,0.017909437,-0.021208322,0.0695932,-0.0791657,-0.06151652,-0.05071416,0.042278215,0.034985013,0.058828525,-0.005800455,0.021922037,0.030664876,0.08833922,0.0031507602,-0.07088275,0.02550959,0.04213458,0.043471817,0.020515736,0.007902525,0.061051667,0.01708324,-0.03665289,0.07034063,0.0037451552,-0.023754107,-0.04130192,0.02175039,0.0906634,-0.06666955,-0.011044136,-0.0124375075,0.024643809
-0.038511086,-0.0025210588,-0.056828648,-0.012207589,0.09717968,0.05407006,0.056157574,-0.098101,-0.037272897,0.06845525,0.059082206,-0.08054447,-0.10183083,-0.00633445,-0.023243703,-0.024196237,-0.05699897,0.0107005,-0.062054306,0.03150732,0.060365178,-0.0035928595,0.023863805,0.016875092,0.0007942631,0.094866306,-0.053179905,-0.003197551,0.023936063,-0.003955269,0.02618937,-0.081898265,0.04398952,-0.025976688,-0.0044543277,-0.058128037,0.06301892,0.06760464,0.045392387,0.04120452,-0.031649612,0.012742061,0.059125096,0.11428765,-0.01482171,0.051062167,0.0078207655,0.07886747,-0.031197863,-0.03696125,0.022243727,0.027600931,-0.0021077394,-0.057807796,0.004382685,0.03260947,-0.08226536,0.020820707,-0.011754185,0.032594465,-0.01807894,0.0101609165,0.028498055,0.06597462
0.020378873,0.05368494,-0.027396768,0.041906226,0.057818085,0.0551289,-0.07458887,-0.07652484,0.0049324306,-0.02721794,-0.016112631,-0.09553987,-0.046414606,-0.019773526,0.015598095,-0.0980171,0.022032144,-0.0029294002,0.0567034,0.006105802,-0.02485296,0.01887929,0.0068988614,0.01089017,-0.046719193,0.015140277,-0.1091109,-0.02207861,-0.0260877,-0.021180525,0.0064953705,0.026030648,-0.017776826,0.0051135975,0.042034987,-0.050596837,0.041977994,0.06892776,0.047874693,0.043249782,-0.09483792,0.06717372,-0.018651348,-0.006369147,-0.05753333,-0.052978247,-0.034145236,0.064045094,-0.09620649,-0.06664199,-0.019909801,-0.033758838,-0.0201083,-0.013938762,-0.052733786,-0.034087587,-0.08600658,0.02587768,0.014078752,-0.0063721053,-0.055731546,0.081728265,-0.010493961,0.06277586
0.06888857,-0.07152848,-0.006445189,0.030404115,0.11661839,0.023374898,-0.024473075,-0.092661984,0.05108971,0.040614974,0.083708,-0.0054820296,-0.020365518,-0.016315768,0.0036330896,-0.072567664,-0.05889285,0.002709864,0.0008242649,0.070109226,-0.00079179613,-0.030533006,0.01611508,0.04388662,-0.011280774,0.08303331,0.060315717,0.10217526,-0.07351578,0.055712666,0.020594725,0.0782893,-0.02441474,-0.021242939,0.012533346,-0.068992965,-0.0081977425,-0.026947394,0.08984585,-0.108613156,0.046208404,0.048216447,-0.02234116,0.094351955,-0.033893812,-0.07214116,-0.010375572,-0.11286743,-0.06780347,-0.008605614,-0.017290516,0.091462284,0.06104857,-0.032168142,0.026627358,0.10059128,-0.008466746,-0.009434872,-0.007701981,0.08981486,-0.04592511,0.007074046,0.03705971,-0.114257514
0.07009104,0.020398093,0.0045293197,-0.047841936,0.10306839,-0.11643552,0.057690587,0.04781562,0.005228167,-0.009277879,0.058773223,-0.031024322,-0.057736266,0.028929342,-0.117810965,-0.15334193,0.02476732,-0.0393087,-0.17138444,0.06392064,0.04295287,-0.14603198,-0.0124882655,0.14565778,0.09007679,0.041393626,-0.029870283,0.06569158,0.0005437778,0.028025724,0.024427226,-0.045625057,0.017520865,-0.018227797,-0.07995477,-0.040549632,0.07242921,0.033369847,0.04496086,-0.01928715,-0.06033537,-0.0022889304,0.045600396,0.017968128,0.00068064936,-0.046738148,0.031856123,-0.062640384,-0.024478128,0.0032165132,-0.065322585,-0.044415385,0.052171517,-0.010898638,-0.015890768,0.020245004,-0.022403419,-0.05657485,-0.04857409,0.10537321,0.059946075,-0.06907564,0.0896342,0.08411
0.026886951,0.01646197,-0.15929914,0.0049455767,-0.014370809,-0.06406506,-0.0874551,0.028723946,0.04543276,0.009386684,-0.024888556,-0.001611217,-0.0073259994,0.011623506,-0.11287902,-0.15617442,0.03872137,0.047202177,-0.13405591,-0.04077233,0.08535365,-0.048347518,-0.0014182496,0.04503536,0.13667735,0.058073115,-0.095017925,0.033875987,-0.08650403,0.10213399,-0.08227873,-0.08695868,-0.004812982,0.016364405,-0.01833347,0.044029023,0.017600574,0.035052434,0.025278235,-0.033301767,-0.09207302,-0.039007958,-0.08571761,0.021911351,0.12444534,-0.02693583,-0.03903821,-0.01849579,0.0006399749,0.032687545,0.035050154,-0.05105963,-0.123660244,-0.09309961,0.017278582,-0.013485672,-0.11623888,0.023535779,0.014045942,0.108070835,-0.04004688,0.03987031,-0.019200012,-0.038999915
-0.017822748,0.10515828,-0.07371159,-0.0029477752,-0.05287887,-0.12590842,0.036707062,-0.030585697,0.13446373,-0.06301471,0.0132805975,0.0057355254,0.015441453,0.006586008,-0.14557198,-0.07800534,0.064447634,-0.0787526,-0.0007620054,-0.065371245,0.06902647,-0.05352643,0.09126062,-0.06692732,0.027673563,0.07582648,0.027481562,-0.060254984,-0.033328906,0.12295504,-0.036457736,-0.0017360183,-0.035112284,0.0057162764,-0.055351377,0.05047003,-0.026959553,0.08875457,-0.048395034,-0.050030928,0.010887126,-0.030542456,-0.031468034,0.068961926,0.07658869,-0.0072945226,0.00061090506,-0.12118918,-0.041514117,0.0063607697,-0.05959958,-0.06384684,-0.1409724,-0.11119432,-0.049145583,0.020410739,-0.073433325,-0.02611782,-0.09853019,0.047966357,0.05914976,0.034123972,0.037401482,0.09418988
0.09486214,-0.04125209,-0.09768686,-0.050027803,0.01522876,-0.11476734,0.026892355,-0.087077454,0.13652973,0.050456002,0.07277199,0.03808171,0.043089982,-0.06417433,-0.1073699,-0.16881946,-0.047155164,-0.11944986,0.030178009,-0.102758646,0.04680366,-0.10803117,0.14966518,0.016911296,0.15645798,0.054375626,0.021424616,-0.04496949,-0.01045677,0.09872607,0.023742836,-0.057496406,-0.06382118,0.00013982077,-0.0016048929,0.0028464352,-0.053009152,0.010543006,-0.03370728,-0.050273474,-0.012957689,-0.010109501,-0.08278372,0.08901824,0.04953998,0.080578975,0.0036511577,0.0055230227,0.0036970426,0.16346978,0.034403645,0.057159174,-0.076964706,-0.13965228,-0.050904743,0.040757608,-0.081288315,-0.07393234,-0.08996343,0.08528953,0.019033195,-0.0038773008,-0.008288868,-0.012737486
-0.052210115,0.06062445,-0.106774405,-0.053997464,0.07675146,-0.07285503,0.08430823,0.005549181,-0.0196739,0.016036643,0.062714025,0.09822669,0.01857094,0.013304037,-0.15345998,-0.16702431,-0.004721901,0.0075050313,0.030605128,-0.094701625,0.08008351,-0.07883476,0.01464466,0.034630887,0.05388009,0.03143079,-0.008699524,-0.017802525,0.108560726,-0.04296024,0.0073042093,-0.05713904,0.062221423,-0.022177866,0.002902853,-0.019389665,-0.03047669,0.024641978,0.0031807856,0.021837452,-0.08170694,0.01600001,-0.013660926,0.07484266,0.0020093026,0.13705726,0.109320454,-0.07189272,-0.08165991,0.05458499,-0.025108822,0.028670574,-0.05582554,-0.016712606,-0.009262876,0.057556577,-0.17745176,-0.08008225,-0.1488922,0.11504391,0.077304654,0.027853088,-0.08042545,0.106403016
0.04581006,-0.034920577,0.043551445,0.048332203,0.038182244,-0.14874011,0.02293112,-0.04163269,-0.010963323,-0.01691709,-0.042590093,0.09079554,-0.046472687,-0.039125305,-0.10896417,-0.054816063,-0.004810156,0.026100427,-0.059875216,-0.105929814,0.102421485,0.06628117,0.025766311,0.016665066,-0.026638066,-0.0040532276,-0.05398778,-0.03151982,0.022766247,-0.070659325,0.010108075,-0.088971965,0.020544646,0.0073888954,-0.1056686,-0.060093742,0.03245346,0.013327972,-0.069099605,0.043194983,0.023349846,0.007510673,-0.0799175,0.081477195,0.0011029358,0.044791404,0.055349555,-0.10519763,-0.050101485,0.14274226,-0.021036379,0.035564736,-0.10573186,-0.11657258,-0.008424708,0.08888735,-0.16104676,0.021482373,-0.03889721,0.088428624,0.1068199,0.042233545,-0.0027539092,0.0050562294
0.004673119,-0.0017234094,-0.086840585,0.018697731,0.020565275,0.0073886365,-0.032419533,0.012373706,-0.04313661,0.019704005,-0.059159964,0.032261457,0.09954057,-0.03208882,-0.08904031,-0.120675154,0.00822845,-0.017000759,0.08811324,-0.06931087,0.030329565,0.009004632,0.17848016,0.0128903445,0.09179356,0.05849902,0.059420906,-0.0009845248,0.05818142,0.06096322,-0.05423837,0.041551404,0.028304337,0.07963454,-0.058100488,0.0147597715,-0.1093091,-0.12831129,0.015766907,0.016257882,0.017100917,-0.05316047,-0.042545885,0.08105825,-0.036386084,0.11715501,0.12470142,-0.11817865,0.021842338,0.012496127,0.033884626,0.07911626,-0.0022957905,-0.064285986,-0.05901067,0.078666724,-0.078952566,-0.11577154,-0.08505085,0.008841592,0.04622357,-0.034589656,-0.052835938,0.0654279
0.04045943,-0.001217066,-0.08750032,-0.05094235,0.06194592,-0.12585825,0.07182238,-0.042984884,-0.019993452,-0.038018934,-0.010213851,0.099084705,0.08437609,-0.07685092,-0.14506783,-0.06253728,-0.050591264,0.04823979,0.07138959,-0.090136,0.030511335,-0.094876945,0.11387885,-0.027414575,0.028435854,0.08089235,-0.057104137,-0.04739011,0.13847703,0.029209364,-0.021859357,-0.06900188,0.04558929,-0.031161176,0.006388994,-0.060620498,0.02700026,0.017541034,-0.11036103,-0.058997847,0.11590856,-0.015854739,-0.06519532,0.10634094,0.01787589,0.14186858,0.12228276,0.045036536,-0.032857947,0.063454434,-0.11013079,0.06192284,-0.11977865,-0.008219738,0.028409125,0.095787175,-0.056805886,-0.124652326,0.027233776,0.15446442,0.01224647,0.05188556,-0.0011114567,0.023924693
0.06828761,0.056355316,0.033170342,0.015632767,-0.0061112875,0.009681946,0.023166068,0.057631165,0.054255333,0.013252514,0.05702912,0.062677234,0.009994727,0.019517394,-0.094050266,-0.013936561,0.00019521246,-0.080418915,-0.022920262,-0.03975567,-0.0033622163,-0.06331925,0.11368117,-0.011473652,0.17227395,0.016339928,0.039427936,0.034091648,0.0035879342,-0.10277219,-0.0075179804,0.0066678897,0.037497673,0.04361431,0.051289562,-0.07747414,0.018189441,-0.11300336,0.013532212,-0.1687336,0.042216044,-0.066333145,-0.09108245,0.13771375,0.0268992,0.09008989,0.026237082,-0.05024769,-0.015612032,0.051416654,-0.039948665,0.07661273,-0.11788464,-0.05055652,-0.103373714,0.059505444,-0.036575425,-0.011038296,-0.0883059,0.115702495,0.13027276,0.046934992,-0.0077194734,-0.11363121
0.0761017,-0.03776804,-0.05935625,-0.070219345,0.051659424,-0.026017163,7.340232e-05,0.053559925,-0.0074953213,0.024811897,0.0048432443,0.08186432,0.052327618,-0.09917068,-0.079175115,0.02681753,0.13830781,-0.051828414,0.05053654,-0.029724838,-0.059914887,-0.05582738,-0.021734808,-0.009945896,0.1264974,0.013944833,-0.08552677,-0.0065553435,0.027226873,0.014573709,-0.035737615,-0.0050448645,-0.021521805,0.063508764,0.061013367,-0.018281128,0.094117,-0.052979965,-0.043122,-0.024747048,0.11632177,0.013073157,-0.097333066,0.077757955,-0.0029877638,0.12122842,0.12442532,0.046481144,0.061743975,-0.012866582,-0.12540957,0.13143465,-0.13805117,-0.027414506,-0.059157584,0.06190565,-0.11382722,-0.08553924,-0.0053435373,0.013738781,-0.0030857457,-0.061293375,-0.084153496,-0.075647004
-0.059769653,-0.076735795,-0.06021752,0.025242915,0.082543544,-0.07885406,0.020492021,0.13679916,0.04443723,0.048320994,-0.009420741,0.071552694,0.044296764,0.030934267,-0.16477478,-0.045366313,0.0660232,0.015063807,0.03715055,-0.03193272,-0.05704434,0.020629108,0.054944202,-0.09943786,0.010004915,-0.029253706,-0.06380279,-0.067180894,0.0035675825,0.03496294,-0.03668401,0.088164054,-0.04405771,-0.031994224,0.021795867,-0.0013971578,-0.057093944,0.018933138,0.022431087,-0.094362766,0.043659337,-0.015301386,-0.081327386,0.1374573,-0.031871174,0.08771323,0.025574341,0.05008013,0.022525672,-0.024602342,0.003707532,-0.018786708,-0.18244171,0.01380468,-0.023511382,0.10828156,0.013214588,-0.038862944,-0.036270704,0.0056207534,0.022861648,0.058739156,0.049444847,-0.07947322
0.0009891024,0.018670605,0.024010362,-0.09755756,-0.0594255,-0.005250085,0.0048071705,0.0372452,-0.024776885,-0.01863566,-0.020454306,0.12466993,-0.0055647893,-0.085328385,-0.08781827,0.025893841,-0.055112995,0.025224632,0.027786143,-0.029962188,-0.06843519,0.023980143,0.079272166,-0.079053216,0.122548975,0.1348128,-0.0006080739,-0.035595793,0.047217276,-0.08891948,-0.040101986,-0.05116198,0.06408243,0.060037073,-0.07345704,-0.013310419,-4.55717e-05,-0.10336874,0.036762368,-0.012668356,0.0858449,0.01683488,-0.104910366,0.053566035,-0.015138371,0.15525363,0.09999871,0.119631864,-0.06723209,0.110152155,-0.07610661,0.09703681,-0.023163345,0.07289075,-0.060632676,0.09006976,0.051922176,-0.046377048,-0.015894612,-0.029046586,0.0030851245,-0.04369165,0.027585857,-0.13391483
